digraph Tree {
node [shape=box] ;
0 [label="X[81] <= 0.254\ngini = 0.181\nsamples = 200000\nvalue = [179902, 20098]"] ;
1 [label="X[53] <= 0.77\ngini = 0.31\nsamples = 18610\nvalue = [15047, 3563]"] ;
0 -> 1 [labeldistance=2.5, labelangle=45, headlabel="True"] ;
2 [label="X[12] <= 0.222\ngini = 0.293\nsamples = 17123\nvalue = [14067, 3056]"] ;
1 -> 2 ;
3 [label="X[166] <= 0.145\ngini = 0.453\nsamples = 989\nvalue = [646, 343]"] ;
2 -> 3 ;
4 [label="X[83] <= 0.167\ngini = 0.18\nsamples = 30\nvalue = [3, 27]"] ;
3 -> 4 ;
5 [label="gini = 0.0\nsamples = 2\nvalue = [2, 0]"] ;
4 -> 5 ;
6 [label="X[2] <= 0.235\ngini = 0.069\nsamples = 28\nvalue = [1, 27]"] ;
4 -> 6 ;
7 [label="gini = 0.0\nsamples = 1\nvalue = [1, 0]"] ;
6 -> 7 ;
8 [label="gini = 0.0\nsamples = 27\nvalue = [0, 27]"] ;
6 -> 8 ;
9 [label="X[165] <= 0.341\ngini = 0.442\nsamples = 959\nvalue = [643, 316]"] ;
3 -> 9 ;
10 [label="X[110] <= 0.67\ngini = 0.5\nsamples = 258\nvalue = [133, 125]"] ;
9 -> 10 ;
11 [label="X[95] <= 0.642\ngini = 0.487\nsamples = 210\nvalue = [122, 88]"] ;
10 -> 11 ;
12 [label="X[42] <= 0.466\ngini = 0.441\nsamples = 146\nvalue = [98, 48]"] ;
11 -> 12 ;
13 [label="X[1] <= 0.658\ngini = 0.499\nsamples = 60\nvalue = [29, 31]"] ;
12 -> 13 ;
14 [label="X[62] <= 0.436\ngini = 0.464\nsamples = 41\nvalue = [26, 15]"] ;
13 -> 14 ;
15 [label="X[11] <= 0.295\ngini = 0.1\nsamples = 19\nvalue = [18, 1]"] ;
14 -> 15 ;
16 [label="gini = 0.0\nsamples = 1\nvalue = [0, 1]"] ;
15 -> 16 ;
17 [label="gini = 0.0\nsamples = 18\nvalue = [18, 0]"] ;
15 -> 17 ;
18 [label="X[183] <= 0.446\ngini = 0.463\nsamples = 22\nvalue = [8, 14]"] ;
14 -> 18 ;
19 [label="gini = 0.0\nsamples = 10\nvalue = [0, 10]"] ;
18 -> 19 ;
20 [label="X[73] <= 0.519\ngini = 0.444\nsamples = 12\nvalue = [8, 4]"] ;
18 -> 20 ;
21 [label="gini = 0.0\nsamples = 8\nvalue = [8, 0]"] ;
20 -> 21 ;
22 [label="gini = 0.0\nsamples = 4\nvalue = [0, 4]"] ;
20 -> 22 ;
23 [label="X[8] <= 0.731\ngini = 0.266\nsamples = 19\nvalue = [3, 16]"] ;
13 -> 23 ;
24 [label="X[147] <= 0.305\ngini = 0.111\nsamples = 17\nvalue = [1, 16]"] ;
23 -> 24 ;
25 [label="gini = 0.0\nsamples = 1\nvalue = [1, 0]"] ;
24 -> 25 ;
26 [label="gini = 0.0\nsamples = 16\nvalue = [0, 16]"] ;
24 -> 26 ;
27 [label="gini = 0.0\nsamples = 2\nvalue = [2, 0]"] ;
23 -> 27 ;
28 [label="X[19] <= 0.68\ngini = 0.317\nsamples = 86\nvalue = [69, 17]"] ;
12 -> 28 ;
29 [label="X[190] <= 0.759\ngini = 0.19\nsamples = 66\nvalue = [59, 7]"] ;
28 -> 29 ;
30 [label="X[141] <= 0.194\ngini = 0.119\nsamples = 63\nvalue = [59, 4]"] ;
29 -> 30 ;
31 [label="X[63] <= 0.474\ngini = 0.444\nsamples = 3\nvalue = [1, 2]"] ;
30 -> 31 ;
32 [label="gini = 0.0\nsamples = 1\nvalue = [1, 0]"] ;
31 -> 32 ;
33 [label="gini = 0.0\nsamples = 2\nvalue = [0, 2]"] ;
31 -> 33 ;
34 [label="X[173] <= 0.248\ngini = 0.064\nsamples = 60\nvalue = [58, 2]"] ;
30 -> 34 ;
35 [label="gini = 0.0\nsamples = 1\nvalue = [0, 1]"] ;
34 -> 35 ;
36 [label="X[134] <= 0.797\ngini = 0.033\nsamples = 59\nvalue = [58, 1]"] ;
34 -> 36 ;
37 [label="gini = 0.0\nsamples = 58\nvalue = [58, 0]"] ;
36 -> 37 ;
38 [label="gini = 0.0\nsamples = 1\nvalue = [0, 1]"] ;
36 -> 38 ;
39 [label="gini = 0.0\nsamples = 3\nvalue = [0, 3]"] ;
29 -> 39 ;
40 [label="X[75] <= 0.458\ngini = 0.5\nsamples = 20\nvalue = [10, 10]"] ;
28 -> 40 ;
41 [label="gini = 0.0\nsamples = 7\nvalue = [0, 7]"] ;
40 -> 41 ;
42 [label="X[111] <= 0.399\ngini = 0.355\nsamples = 13\nvalue = [10, 3]"] ;
40 -> 42 ;
43 [label="X[199] <= 0.321\ngini = 0.375\nsamples = 4\nvalue = [1, 3]"] ;
42 -> 43 ;
44 [label="gini = 0.0\nsamples = 1\nvalue = [1, 0]"] ;
43 -> 44 ;
45 [label="gini = 0.0\nsamples = 3\nvalue = [0, 3]"] ;
43 -> 45 ;
46 [label="gini = 0.0\nsamples = 9\nvalue = [9, 0]"] ;
42 -> 46 ;
47 [label="X[139] <= 0.394\ngini = 0.469\nsamples = 64\nvalue = [24, 40]"] ;
11 -> 47 ;
48 [label="gini = 0.0\nsamples = 16\nvalue = [0, 16]"] ;
47 -> 48 ;
49 [label="X[36] <= 0.41\ngini = 0.5\nsamples = 48\nvalue = [24, 24]"] ;
47 -> 49 ;
50 [label="X[77] <= 0.617\ngini = 0.219\nsamples = 16\nvalue = [2, 14]"] ;
49 -> 50 ;
51 [label="gini = 0.0\nsamples = 14\nvalue = [0, 14]"] ;
50 -> 51 ;
52 [label="gini = 0.0\nsamples = 2\nvalue = [2, 0]"] ;
50 -> 52 ;
53 [label="X[105] <= 0.587\ngini = 0.43\nsamples = 32\nvalue = [22, 10]"] ;
49 -> 53 ;
54 [label="X[155] <= 0.808\ngini = 0.105\nsamples = 18\nvalue = [17, 1]"] ;
53 -> 54 ;
55 [label="gini = 0.0\nsamples = 17\nvalue = [17, 0]"] ;
54 -> 55 ;
56 [label="gini = 0.0\nsamples = 1\nvalue = [0, 1]"] ;
54 -> 56 ;
57 [label="X[114] <= 0.459\ngini = 0.459\nsamples = 14\nvalue = [5, 9]"] ;
53 -> 57 ;
58 [label="gini = 0.0\nsamples = 7\nvalue = [0, 7]"] ;
57 -> 58 ;
59 [label="X[197] <= 0.622\ngini = 0.408\nsamples = 7\nvalue = [5, 2]"] ;
57 -> 59 ;
60 [label="gini = 0.0\nsamples = 5\nvalue = [5, 0]"] ;
59 -> 60 ;
61 [label="gini = 0.0\nsamples = 2\nvalue = [0, 2]"] ;
59 -> 61 ;
62 [label="X[53] <= 0.549\ngini = 0.353\nsamples = 48\nvalue = [11, 37]"] ;
10 -> 62 ;
63 [label="X[172] <= 0.542\ngini = 0.5\nsamples = 20\nvalue = [10, 10]"] ;
62 -> 63 ;
64 [label="X[105] <= 0.394\ngini = 0.278\nsamples = 12\nvalue = [2, 10]"] ;
63 -> 64 ;
65 [label="gini = 0.0\nsamples = 2\nvalue = [2, 0]"] ;
64 -> 65 ;
66 [label="gini = 0.0\nsamples = 10\nvalue = [0, 10]"] ;
64 -> 66 ;
67 [label="gini = 0.0\nsamples = 8\nvalue = [8, 0]"] ;
63 -> 67 ;
68 [label="X[9] <= 0.195\ngini = 0.069\nsamples = 28\nvalue = [1, 27]"] ;
62 -> 68 ;
69 [label="gini = 0.0\nsamples = 1\nvalue = [1, 0]"] ;
68 -> 69 ;
70 [label="gini = 0.0\nsamples = 27\nvalue = [0, 27]"] ;
68 -> 70 ;
71 [label="X[80] <= 0.206\ngini = 0.396\nsamples = 701\nvalue = [510, 191]"] ;
9 -> 71 ;
72 [label="X[161] <= 0.364\ngini = 0.456\nsamples = 37\nvalue = [13, 24]"] ;
71 -> 72 ;
73 [label="gini = 0.0\nsamples = 5\nvalue = [5, 0]"] ;
72 -> 73 ;
74 [label="X[165] <= 0.611\ngini = 0.375\nsamples = 32\nvalue = [8, 24]"] ;
72 -> 74 ;
75 [label="gini = 0.0\nsamples = 19\nvalue = [0, 19]"] ;
74 -> 75 ;
76 [label="X[58] <= 0.509\ngini = 0.473\nsamples = 13\nvalue = [8, 5]"] ;
74 -> 76 ;
77 [label="X[61] <= 0.351\ngini = 0.278\nsamples = 6\nvalue = [1, 5]"] ;
76 -> 77 ;
78 [label="gini = 0.0\nsamples = 1\nvalue = [1, 0]"] ;
77 -> 78 ;
79 [label="gini = 0.0\nsamples = 5\nvalue = [0, 5]"] ;
77 -> 79 ;
80 [label="gini = 0.0\nsamples = 7\nvalue = [7, 0]"] ;
76 -> 80 ;
81 [label="X[164] <= 0.837\ngini = 0.377\nsamples = 664\nvalue = [497, 167]"] ;
71 -> 81 ;
82 [label="X[140] <= 0.788\ngini = 0.362\nsamples = 645\nvalue = [492, 153]"] ;
81 -> 82 ;
83 [label="X[148] <= 0.225\ngini = 0.351\nsamples = 635\nvalue = [491, 144]"] ;
82 -> 83 ;
84 [label="X[21] <= 0.47\ngini = 0.49\nsamples = 35\nvalue = [15, 20]"] ;
83 -> 84 ;
85 [label="X[119] <= 0.731\ngini = 0.32\nsamples = 20\nvalue = [4, 16]"] ;
84 -> 85 ;
86 [label="X[95] <= 0.841\ngini = 0.111\nsamples = 17\nvalue = [1, 16]"] ;
85 -> 86 ;
87 [label="gini = 0.0\nsamples = 16\nvalue = [0, 16]"] ;
86 -> 87 ;
88 [label="gini = 0.0\nsamples = 1\nvalue = [1, 0]"] ;
86 -> 88 ;
89 [label="gini = 0.0\nsamples = 3\nvalue = [3, 0]"] ;
85 -> 89 ;
90 [label="X[22] <= 0.504\ngini = 0.391\nsamples = 15\nvalue = [11, 4]"] ;
84 -> 90 ;
91 [label="gini = 0.0\nsamples = 10\nvalue = [10, 0]"] ;
90 -> 91 ;
92 [label="X[122] <= 0.345\ngini = 0.32\nsamples = 5\nvalue = [1, 4]"] ;
90 -> 92 ;
93 [label="gini = 0.0\nsamples = 1\nvalue = [1, 0]"] ;
92 -> 93 ;
94 [label="gini = 0.0\nsamples = 4\nvalue = [0, 4]"] ;
92 -> 94 ;
95 [label="X[160] <= 0.143\ngini = 0.328\nsamples = 600\nvalue = [476, 124]"] ;
83 -> 95 ;
96 [label="gini = 0.0\nsamples = 6\nvalue = [0, 6]"] ;
95 -> 96 ;
97 [label="X[94] <= 0.882\ngini = 0.318\nsamples = 594\nvalue = [476, 118]"] ;
95 -> 97 ;
98 [label="X[89] <= 0.709\ngini = 0.31\nsamples = 589\nvalue = [476, 113]"] ;
97 -> 98 ;
99 [label="X[156] <= 0.276\ngini = 0.278\nsamples = 527\nvalue = [439, 88]"] ;
98 -> 99 ;
100 [label="X[72] <= 0.568\ngini = 0.499\nsamples = 31\nvalue = [16, 15]"] ;
99 -> 100 ;
101 [label="X[183] <= 0.561\ngini = 0.434\nsamples = 22\nvalue = [7, 15]"] ;
100 -> 101 ;
102 [label="X[106] <= 0.72\ngini = 0.124\nsamples = 15\nvalue = [1, 14]"] ;
101 -> 102 ;
103 [label="gini = 0.0\nsamples = 14\nvalue = [0, 14]"] ;
102 -> 103 ;
104 [label="gini = 0.0\nsamples = 1\nvalue = [1, 0]"] ;
102 -> 104 ;
105 [label="X[8] <= 0.261\ngini = 0.245\nsamples = 7\nvalue = [6, 1]"] ;
101 -> 105 ;
106 [label="gini = 0.0\nsamples = 1\nvalue = [0, 1]"] ;
105 -> 106 ;
107 [label="gini = 0.0\nsamples = 6\nvalue = [6, 0]"] ;
105 -> 107 ;
108 [label="gini = 0.0\nsamples = 9\nvalue = [9, 0]"] ;
100 -> 108 ;
109 [label="X[158] <= 0.112\ngini = 0.251\nsamples = 496\nvalue = [423, 73]"] ;
99 -> 109 ;
110 [label="gini = 0.0\nsamples = 4\nvalue = [0, 4]"] ;
109 -> 110 ;
111 [label="X[11] <= 0.739\ngini = 0.241\nsamples = 492\nvalue = [423, 69]"] ;
109 -> 111 ;
112 [label="X[58] <= 0.271\ngini = 0.214\nsamples = 460\nvalue = [404, 56]"] ;
111 -> 112 ;
113 [label="X[82] <= 0.604\ngini = 0.475\nsamples = 31\nvalue = [19, 12]"] ;
112 -> 113 ;
114 [label="X[75] <= 0.327\ngini = 0.33\nsamples = 24\nvalue = [19, 5]"] ;
113 -> 114 ;
115 [label="gini = 0.0\nsamples = 4\nvalue = [0, 4]"] ;
114 -> 115 ;
116 [label="X[80] <= 0.759\ngini = 0.095\nsamples = 20\nvalue = [19, 1]"] ;
114 -> 116 ;
117 [label="gini = 0.0\nsamples = 19\nvalue = [19, 0]"] ;
116 -> 117 ;
118 [label="gini = 0.0\nsamples = 1\nvalue = [0, 1]"] ;
116 -> 118 ;
119 [label="gini = 0.0\nsamples = 7\nvalue = [0, 7]"] ;
113 -> 119 ;
120 [label="X[127] <= 0.218\ngini = 0.184\nsamples = 429\nvalue = [385, 44]"] ;
112 -> 120 ;
121 [label="X[85] <= 0.475\ngini = 0.476\nsamples = 23\nvalue = [14, 9]"] ;
120 -> 121 ;
122 [label="X[135] <= 0.396\ngini = 0.426\nsamples = 13\nvalue = [4, 9]"] ;
121 -> 122 ;
123 [label="X[199] <= 0.47\ngini = 0.32\nsamples = 5\nvalue = [4, 1]"] ;
122 -> 123 ;
124 [label="gini = 0.0\nsamples = 1\nvalue = [0, 1]"] ;
123 -> 124 ;
125 [label="gini = 0.0\nsamples = 4\nvalue = [4, 0]"] ;
123 -> 125 ;
126 [label="gini = 0.0\nsamples = 8\nvalue = [0, 8]"] ;
122 -> 126 ;
127 [label="gini = 0.0\nsamples = 10\nvalue = [10, 0]"] ;
121 -> 127 ;
128 [label="X[2] <= 0.777\ngini = 0.158\nsamples = 406\nvalue = [371, 35]"] ;
120 -> 128 ;
129 [label="X[44] <= 0.115\ngini = 0.13\nsamples = 387\nvalue = [360, 27]"] ;
128 -> 129 ;
130 [label="X[49] <= 0.617\ngini = 0.49\nsamples = 7\nvalue = [3, 4]"] ;
129 -> 130 ;
131 [label="gini = 0.0\nsamples = 4\nvalue = [0, 4]"] ;
130 -> 131 ;
132 [label="gini = 0.0\nsamples = 3\nvalue = [3, 0]"] ;
130 -> 132 ;
133 [label="X[36] <= 0.22\ngini = 0.114\nsamples = 380\nvalue = [357, 23]"] ;
129 -> 133 ;
134 [label="X[186] <= 0.504\ngini = 0.459\nsamples = 14\nvalue = [9, 5]"] ;
133 -> 134 ;
135 [label="X[34] <= 0.664\ngini = 0.278\nsamples = 6\nvalue = [1, 5]"] ;
134 -> 135 ;
136 [label="gini = 0.0\nsamples = 5\nvalue = [0, 5]"] ;
135 -> 136 ;
137 [label="gini = 0.0\nsamples = 1\nvalue = [1, 0]"] ;
135 -> 137 ;
138 [label="gini = 0.0\nsamples = 8\nvalue = [8, 0]"] ;
134 -> 138 ;
139 [label="X[121] <= 0.188\ngini = 0.094\nsamples = 366\nvalue = [348, 18]"] ;
133 -> 139 ;
140 [label="X[40] <= 0.68\ngini = 0.48\nsamples = 10\nvalue = [6, 4]"] ;
139 -> 140 ;
141 [label="gini = 0.0\nsamples = 6\nvalue = [6, 0]"] ;
140 -> 141 ;
142 [label="gini = 0.0\nsamples = 4\nvalue = [0, 4]"] ;
140 -> 142 ;
143 [label="X[108] <= 0.051\ngini = 0.076\nsamples = 356\nvalue = [342, 14]"] ;
139 -> 143 ;
144 [label="X[155] <= 0.691\ngini = 0.444\nsamples = 3\nvalue = [1, 2]"] ;
143 -> 144 ;
145 [label="gini = 0.0\nsamples = 2\nvalue = [0, 2]"] ;
144 -> 145 ;
146 [label="gini = 0.0\nsamples = 1\nvalue = [1, 0]"] ;
144 -> 146 ;
147 [label="X[18] <= 0.142\ngini = 0.066\nsamples = 353\nvalue = [341, 12]"] ;
143 -> 147 ;
148 [label="gini = 0.0\nsamples = 1\nvalue = [0, 1]"] ;
147 -> 148 ;
149 [label="X[115] <= 0.166\ngini = 0.061\nsamples = 352\nvalue = [341, 11]"] ;
147 -> 149 ;
150 [label="gini = 0.0\nsamples = 1\nvalue = [0, 1]"] ;
149 -> 150 ;
151 [label="X[18] <= 0.883\ngini = 0.055\nsamples = 351\nvalue = [341, 10]"] ;
149 -> 151 ;
152 [label="X[0] <= 0.918\ngini = 0.05\nsamples = 350\nvalue = [341, 9]"] ;
151 -> 152 ;
153 [label="X[106] <= 0.889\ngini = 0.045\nsamples = 349\nvalue = [341, 8]"] ;
152 -> 153 ;
154 [label="X[184] <= 0.167\ngini = 0.039\nsamples = 348\nvalue = [341, 7]"] ;
153 -> 154 ;
155 [label="gini = 0.0\nsamples = 1\nvalue = [0, 1]"] ;
154 -> 155 ;
156 [label="X[178] <= 0.903\ngini = 0.034\nsamples = 347\nvalue = [341, 6]"] ;
154 -> 156 ;
157 [label="X[141] <= 0.869\ngini = 0.028\nsamples = 346\nvalue = [341, 5]"] ;
156 -> 157 ;
158 [label="X[191] <= 0.875\ngini = 0.023\nsamples = 345\nvalue = [341, 4]"] ;
157 -> 158 ;
159 [label="X[193] <= 0.823\ngini = 0.012\nsamples = 338\nvalue = [336, 2]"] ;
158 -> 159 ;
160 [label="X[154] <= 0.831\ngini = 0.006\nsamples = 336\nvalue = [335, 1]"] ;
159 -> 160 ;
161 [label="gini = 0.0\nsamples = 334\nvalue = [334, 0]"] ;
160 -> 161 ;
162 [label="X[38] <= 0.468\ngini = 0.5\nsamples = 2\nvalue = [1, 1]"] ;
160 -> 162 ;
163 [label="gini = 0.0\nsamples = 1\nvalue = [1, 0]"] ;
162 -> 163 ;
164 [label="gini = 0.0\nsamples = 1\nvalue = [0, 1]"] ;
162 -> 164 ;
165 [label="X[99] <= 0.413\ngini = 0.5\nsamples = 2\nvalue = [1, 1]"] ;
159 -> 165 ;
166 [label="gini = 0.0\nsamples = 1\nvalue = [1, 0]"] ;
165 -> 166 ;
167 [label="gini = 0.0\nsamples = 1\nvalue = [0, 1]"] ;
165 -> 167 ;
168 [label="X[106] <= 0.442\ngini = 0.408\nsamples = 7\nvalue = [5, 2]"] ;
158 -> 168 ;
169 [label="gini = 0.0\nsamples = 2\nvalue = [0, 2]"] ;
168 -> 169 ;
170 [label="gini = 0.0\nsamples = 5\nvalue = [5, 0]"] ;
168 -> 170 ;
171 [label="gini = 0.0\nsamples = 1\nvalue = [0, 1]"] ;
157 -> 171 ;
172 [label="gini = 0.0\nsamples = 1\nvalue = [0, 1]"] ;
156 -> 172 ;
173 [label="gini = 0.0\nsamples = 1\nvalue = [0, 1]"] ;
153 -> 173 ;
174 [label="gini = 0.0\nsamples = 1\nvalue = [0, 1]"] ;
152 -> 174 ;
175 [label="gini = 0.0\nsamples = 1\nvalue = [0, 1]"] ;
151 -> 175 ;
176 [label="X[39] <= 0.503\ngini = 0.488\nsamples = 19\nvalue = [11, 8]"] ;
128 -> 176 ;
177 [label="X[27] <= 0.789\ngini = 0.26\nsamples = 13\nvalue = [11, 2]"] ;
176 -> 177 ;
178 [label="gini = 0.0\nsamples = 11\nvalue = [11, 0]"] ;
177 -> 178 ;
179 [label="gini = 0.0\nsamples = 2\nvalue = [0, 2]"] ;
177 -> 179 ;
180 [label="gini = 0.0\nsamples = 6\nvalue = [0, 6]"] ;
176 -> 180 ;
181 [label="X[67] <= 0.645\ngini = 0.482\nsamples = 32\nvalue = [19, 13]"] ;
111 -> 181 ;
182 [label="X[18] <= 0.536\ngini = 0.393\nsamples = 26\nvalue = [19, 7]"] ;
181 -> 182 ;
183 [label="gini = 0.0\nsamples = 14\nvalue = [14, 0]"] ;
182 -> 183 ;
184 [label="X[69] <= 0.535\ngini = 0.486\nsamples = 12\nvalue = [5, 7]"] ;
182 -> 184 ;
185 [label="X[71] <= 0.566\ngini = 0.278\nsamples = 6\nvalue = [5, 1]"] ;
184 -> 185 ;
186 [label="gini = 0.0\nsamples = 5\nvalue = [5, 0]"] ;
185 -> 186 ;
187 [label="gini = 0.0\nsamples = 1\nvalue = [0, 1]"] ;
185 -> 187 ;
188 [label="gini = 0.0\nsamples = 6\nvalue = [0, 6]"] ;
184 -> 188 ;
189 [label="gini = 0.0\nsamples = 6\nvalue = [0, 6]"] ;
181 -> 189 ;
190 [label="X[184] <= 0.372\ngini = 0.481\nsamples = 62\nvalue = [37, 25]"] ;
98 -> 190 ;
191 [label="gini = 0.0\nsamples = 8\nvalue = [0, 8]"] ;
190 -> 191 ;
192 [label="X[1] <= 0.625\ngini = 0.431\nsamples = 54\nvalue = [37, 17]"] ;
190 -> 192 ;
193 [label="X[42] <= 0.729\ngini = 0.213\nsamples = 33\nvalue = [29, 4]"] ;
192 -> 193 ;
194 [label="X[116] <= 0.727\ngini = 0.121\nsamples = 31\nvalue = [29, 2]"] ;
193 -> 194 ;
195 [label="gini = 0.0\nsamples = 29\nvalue = [29, 0]"] ;
194 -> 195 ;
196 [label="gini = 0.0\nsamples = 2\nvalue = [0, 2]"] ;
194 -> 196 ;
197 [label="gini = 0.0\nsamples = 2\nvalue = [0, 2]"] ;
193 -> 197 ;
198 [label="X[34] <= 0.444\ngini = 0.472\nsamples = 21\nvalue = [8, 13]"] ;
192 -> 198 ;
199 [label="gini = 0.0\nsamples = 9\nvalue = [0, 9]"] ;
198 -> 199 ;
200 [label="X[131] <= 0.438\ngini = 0.444\nsamples = 12\nvalue = [8, 4]"] ;
198 -> 200 ;
201 [label="gini = 0.0\nsamples = 3\nvalue = [0, 3]"] ;
200 -> 201 ;
202 [label="X[3] <= 0.295\ngini = 0.198\nsamples = 9\nvalue = [8, 1]"] ;
200 -> 202 ;
203 [label="gini = 0.0\nsamples = 1\nvalue = [0, 1]"] ;
202 -> 203 ;
204 [label="gini = 0.0\nsamples = 8\nvalue = [8, 0]"] ;
202 -> 204 ;
205 [label="gini = 0.0\nsamples = 5\nvalue = [0, 5]"] ;
97 -> 205 ;
206 [label="X[185] <= 0.345\ngini = 0.18\nsamples = 10\nvalue = [1, 9]"] ;
82 -> 206 ;
207 [label="gini = 0.0\nsamples = 1\nvalue = [1, 0]"] ;
206 -> 207 ;
208 [label="gini = 0.0\nsamples = 9\nvalue = [0, 9]"] ;
206 -> 208 ;
209 [label="X[155] <= 0.408\ngini = 0.388\nsamples = 19\nvalue = [5, 14]"] ;
81 -> 209 ;
210 [label="gini = 0.0\nsamples = 5\nvalue = [5, 0]"] ;
209 -> 210 ;
211 [label="gini = 0.0\nsamples = 14\nvalue = [0, 14]"] ;
209 -> 211 ;
212 [label="X[174] <= 0.219\ngini = 0.28\nsamples = 16134\nvalue = [13421, 2713]"] ;
2 -> 212 ;
213 [label="X[115] <= 0.378\ngini = 0.454\nsamples = 674\nvalue = [439, 235]"] ;
212 -> 213 ;
214 [label="X[173] <= 0.478\ngini = 0.499\nsamples = 167\nvalue = [80, 87]"] ;
213 -> 214 ;
215 [label="X[165] <= 0.312\ngini = 0.36\nsamples = 51\nvalue = [39, 12]"] ;
214 -> 215 ;
216 [label="X[108] <= 0.465\ngini = 0.492\nsamples = 16\nvalue = [7, 9]"] ;
215 -> 216 ;
217 [label="X[39] <= 0.609\ngini = 0.346\nsamples = 9\nvalue = [7, 2]"] ;
216 -> 217 ;
218 [label="gini = 0.0\nsamples = 7\nvalue = [7, 0]"] ;
217 -> 218 ;
219 [label="gini = 0.0\nsamples = 2\nvalue = [0, 2]"] ;
217 -> 219 ;
220 [label="gini = 0.0\nsamples = 7\nvalue = [0, 7]"] ;
216 -> 220 ;
221 [label="X[6] <= 0.63\ngini = 0.157\nsamples = 35\nvalue = [32, 3]"] ;
215 -> 221 ;
222 [label="gini = 0.0\nsamples = 31\nvalue = [31, 0]"] ;
221 -> 222 ;
223 [label="X[33] <= 0.527\ngini = 0.375\nsamples = 4\nvalue = [1, 3]"] ;
221 -> 223 ;
224 [label="gini = 0.0\nsamples = 3\nvalue = [0, 3]"] ;
223 -> 224 ;
225 [label="gini = 0.0\nsamples = 1\nvalue = [1, 0]"] ;
223 -> 225 ;
226 [label="X[40] <= 0.455\ngini = 0.457\nsamples = 116\nvalue = [41, 75]"] ;
214 -> 226 ;
227 [label="X[138] <= 0.599\ngini = 0.403\nsamples = 25\nvalue = [18, 7]"] ;
226 -> 227 ;
228 [label="X[142] <= 0.363\ngini = 0.298\nsamples = 22\nvalue = [18, 4]"] ;
227 -> 228 ;
229 [label="X[155] <= 0.551\ngini = 0.375\nsamples = 4\nvalue = [1, 3]"] ;
228 -> 229 ;
230 [label="gini = 0.0\nsamples = 3\nvalue = [0, 3]"] ;
229 -> 230 ;
231 [label="gini = 0.0\nsamples = 1\nvalue = [1, 0]"] ;
229 -> 231 ;
232 [label="X[143] <= 0.283\ngini = 0.105\nsamples = 18\nvalue = [17, 1]"] ;
228 -> 232 ;
233 [label="gini = 0.0\nsamples = 1\nvalue = [0, 1]"] ;
232 -> 233 ;
234 [label="gini = 0.0\nsamples = 17\nvalue = [17, 0]"] ;
232 -> 234 ;
235 [label="gini = 0.0\nsamples = 3\nvalue = [0, 3]"] ;
227 -> 235 ;
236 [label="X[126] <= 0.692\ngini = 0.378\nsamples = 91\nvalue = [23, 68]"] ;
226 -> 236 ;
237 [label="X[71] <= 0.717\ngini = 0.287\nsamples = 75\nvalue = [13, 62]"] ;
236 -> 237 ;
238 [label="X[16] <= 0.724\ngini = 0.239\nsamples = 72\nvalue = [10, 62]"] ;
237 -> 238 ;
239 [label="X[66] <= 0.263\ngini = 0.163\nsamples = 67\nvalue = [6, 61]"] ;
238 -> 239 ;
240 [label="gini = 0.0\nsamples = 2\nvalue = [2, 0]"] ;
239 -> 240 ;
241 [label="X[83] <= 0.204\ngini = 0.116\nsamples = 65\nvalue = [4, 61]"] ;
239 -> 241 ;
242 [label="X[172] <= 0.405\ngini = 0.444\nsamples = 3\nvalue = [2, 1]"] ;
241 -> 242 ;
243 [label="gini = 0.0\nsamples = 2\nvalue = [2, 0]"] ;
242 -> 243 ;
244 [label="gini = 0.0\nsamples = 1\nvalue = [0, 1]"] ;
242 -> 244 ;
245 [label="X[133] <= 0.219\ngini = 0.062\nsamples = 62\nvalue = [2, 60]"] ;
241 -> 245 ;
246 [label="gini = 0.0\nsamples = 1\nvalue = [1, 0]"] ;
245 -> 246 ;
247 [label="X[94] <= 0.15\ngini = 0.032\nsamples = 61\nvalue = [1, 60]"] ;
245 -> 247 ;
248 [label="gini = 0.0\nsamples = 1\nvalue = [1, 0]"] ;
247 -> 248 ;
249 [label="gini = 0.0\nsamples = 60\nvalue = [0, 60]"] ;
247 -> 249 ;
250 [label="X[45] <= 0.346\ngini = 0.32\nsamples = 5\nvalue = [4, 1]"] ;
238 -> 250 ;
251 [label="gini = 0.0\nsamples = 1\nvalue = [0, 1]"] ;
250 -> 251 ;
252 [label="gini = 0.0\nsamples = 4\nvalue = [4, 0]"] ;
250 -> 252 ;
253 [label="gini = 0.0\nsamples = 3\nvalue = [3, 0]"] ;
237 -> 253 ;
254 [label="X[145] <= 0.398\ngini = 0.469\nsamples = 16\nvalue = [10, 6]"] ;
236 -> 254 ;
255 [label="gini = 0.0\nsamples = 4\nvalue = [0, 4]"] ;
254 -> 255 ;
256 [label="X[93] <= 0.655\ngini = 0.278\nsamples = 12\nvalue = [10, 2]"] ;
254 -> 256 ;
257 [label="gini = 0.0\nsamples = 10\nvalue = [10, 0]"] ;
256 -> 257 ;
258 [label="gini = 0.0\nsamples = 2\nvalue = [0, 2]"] ;
256 -> 258 ;
259 [label="X[179] <= 0.583\ngini = 0.413\nsamples = 507\nvalue = [359, 148]"] ;
213 -> 259 ;
260 [label="X[1] <= 0.637\ngini = 0.365\nsamples = 392\nvalue = [298, 94]"] ;
259 -> 260 ;
261 [label="X[129] <= 0.372\ngini = 0.287\nsamples = 265\nvalue = [219, 46]"] ;
260 -> 261 ;
262 [label="X[9] <= 0.561\ngini = 0.435\nsamples = 72\nvalue = [49, 23]"] ;
261 -> 262 ;
263 [label="X[41] <= 0.36\ngini = 0.489\nsamples = 33\nvalue = [14, 19]"] ;
262 -> 263 ;
264 [label="X[39] <= 0.66\ngini = 0.18\nsamples = 10\nvalue = [9, 1]"] ;
263 -> 264 ;
265 [label="gini = 0.0\nsamples = 9\nvalue = [9, 0]"] ;
264 -> 265 ;
266 [label="gini = 0.0\nsamples = 1\nvalue = [0, 1]"] ;
264 -> 266 ;
267 [label="X[62] <= 0.313\ngini = 0.34\nsamples = 23\nvalue = [5, 18]"] ;
263 -> 267 ;
268 [label="gini = 0.0\nsamples = 3\nvalue = [3, 0]"] ;
267 -> 268 ;
269 [label="X[49] <= 0.23\ngini = 0.18\nsamples = 20\nvalue = [2, 18]"] ;
267 -> 269 ;
270 [label="gini = 0.0\nsamples = 2\nvalue = [2, 0]"] ;
269 -> 270 ;
271 [label="gini = 0.0\nsamples = 18\nvalue = [0, 18]"] ;
269 -> 271 ;
272 [label="X[121] <= 0.312\ngini = 0.184\nsamples = 39\nvalue = [35, 4]"] ;
262 -> 272 ;
273 [label="gini = 0.0\nsamples = 3\nvalue = [0, 3]"] ;
272 -> 273 ;
274 [label="X[50] <= 0.751\ngini = 0.054\nsamples = 36\nvalue = [35, 1]"] ;
272 -> 274 ;
275 [label="gini = 0.0\nsamples = 35\nvalue = [35, 0]"] ;
274 -> 275 ;
276 [label="gini = 0.0\nsamples = 1\nvalue = [0, 1]"] ;
274 -> 276 ;
277 [label="X[98] <= 0.149\ngini = 0.21\nsamples = 193\nvalue = [170, 23]"] ;
261 -> 277 ;
278 [label="gini = 0.0\nsamples = 3\nvalue = [0, 3]"] ;
277 -> 278 ;
279 [label="X[95] <= 0.843\ngini = 0.188\nsamples = 190\nvalue = [170, 20]"] ;
277 -> 279 ;
280 [label="X[170] <= 0.157\ngini = 0.153\nsamples = 180\nvalue = [165, 15]"] ;
279 -> 280 ;
281 [label="gini = 0.0\nsamples = 2\nvalue = [0, 2]"] ;
280 -> 281 ;
282 [label="X[139] <= 0.776\ngini = 0.135\nsamples = 178\nvalue = [165, 13]"] ;
280 -> 282 ;
283 [label="X[163] <= 0.188\ngini = 0.117\nsamples = 176\nvalue = [165, 11]"] ;
282 -> 283 ;
284 [label="gini = 0.0\nsamples = 2\nvalue = [0, 2]"] ;
283 -> 284 ;
285 [label="X[66] <= 0.84\ngini = 0.098\nsamples = 174\nvalue = [165, 9]"] ;
283 -> 285 ;
286 [label="X[92] <= 0.187\ngini = 0.079\nsamples = 171\nvalue = [164, 7]"] ;
285 -> 286 ;
287 [label="X[23] <= 0.596\ngini = 0.444\nsamples = 3\nvalue = [1, 2]"] ;
286 -> 287 ;
288 [label="gini = 0.0\nsamples = 1\nvalue = [1, 0]"] ;
287 -> 288 ;
289 [label="gini = 0.0\nsamples = 2\nvalue = [0, 2]"] ;
287 -> 289 ;
290 [label="X[146] <= 0.788\ngini = 0.058\nsamples = 168\nvalue = [163, 5]"] ;
286 -> 290 ;
291 [label="X[13] <= 0.176\ngini = 0.047\nsamples = 167\nvalue = [163, 4]"] ;
290 -> 291 ;
292 [label="gini = 0.0\nsamples = 1\nvalue = [0, 1]"] ;
291 -> 292 ;
293 [label="X[123] <= 0.13\ngini = 0.035\nsamples = 166\nvalue = [163, 3]"] ;
291 -> 293 ;
294 [label="gini = 0.0\nsamples = 1\nvalue = [0, 1]"] ;
293 -> 294 ;
295 [label="X[169] <= 0.18\ngini = 0.024\nsamples = 165\nvalue = [163, 2]"] ;
293 -> 295 ;
296 [label="gini = 0.0\nsamples = 1\nvalue = [0, 1]"] ;
295 -> 296 ;
297 [label="X[170] <= 0.186\ngini = 0.012\nsamples = 164\nvalue = [163, 1]"] ;
295 -> 297 ;
298 [label="X[141] <= 0.472\ngini = 0.5\nsamples = 2\nvalue = [1, 1]"] ;
297 -> 298 ;
299 [label="gini = 0.0\nsamples = 1\nvalue = [1, 0]"] ;
298 -> 299 ;
300 [label="gini = 0.0\nsamples = 1\nvalue = [0, 1]"] ;
298 -> 300 ;
301 [label="gini = 0.0\nsamples = 162\nvalue = [162, 0]"] ;
297 -> 301 ;
302 [label="gini = 0.0\nsamples = 1\nvalue = [0, 1]"] ;
290 -> 302 ;
303 [label="X[140] <= 0.503\ngini = 0.444\nsamples = 3\nvalue = [1, 2]"] ;
285 -> 303 ;
304 [label="gini = 0.0\nsamples = 2\nvalue = [0, 2]"] ;
303 -> 304 ;
305 [label="gini = 0.0\nsamples = 1\nvalue = [1, 0]"] ;
303 -> 305 ;
306 [label="gini = 0.0\nsamples = 2\nvalue = [0, 2]"] ;
282 -> 306 ;
307 [label="X[51] <= 0.539\ngini = 0.5\nsamples = 10\nvalue = [5, 5]"] ;
279 -> 307 ;
308 [label="gini = 0.0\nsamples = 4\nvalue = [4, 0]"] ;
307 -> 308 ;
309 [label="X[30] <= 0.42\ngini = 0.278\nsamples = 6\nvalue = [1, 5]"] ;
307 -> 309 ;
310 [label="gini = 0.0\nsamples = 1\nvalue = [1, 0]"] ;
309 -> 310 ;
311 [label="gini = 0.0\nsamples = 5\nvalue = [0, 5]"] ;
309 -> 311 ;
312 [label="X[151] <= 0.76\ngini = 0.47\nsamples = 127\nvalue = [79, 48]"] ;
260 -> 312 ;
313 [label="X[39] <= 0.296\ngini = 0.436\nsamples = 115\nvalue = [78, 37]"] ;
312 -> 313 ;
314 [label="X[121] <= 0.482\ngini = 0.298\nsamples = 11\nvalue = [2, 9]"] ;
313 -> 314 ;
315 [label="gini = 0.0\nsamples = 9\nvalue = [0, 9]"] ;
314 -> 315 ;
316 [label="gini = 0.0\nsamples = 2\nvalue = [2, 0]"] ;
314 -> 316 ;
317 [label="X[54] <= 0.715\ngini = 0.393\nsamples = 104\nvalue = [76, 28]"] ;
313 -> 317 ;
318 [label="X[44] <= 0.174\ngini = 0.335\nsamples = 94\nvalue = [74, 20]"] ;
317 -> 318 ;
319 [label="gini = 0.0\nsamples = 4\nvalue = [0, 4]"] ;
318 -> 319 ;
320 [label="X[1] <= 0.639\ngini = 0.292\nsamples = 90\nvalue = [74, 16]"] ;
318 -> 320 ;
321 [label="gini = 0.0\nsamples = 3\nvalue = [0, 3]"] ;
320 -> 321 ;
322 [label="X[47] <= 0.794\ngini = 0.254\nsamples = 87\nvalue = [74, 13]"] ;
320 -> 322 ;
323 [label="X[43] <= 0.168\ngini = 0.21\nsamples = 84\nvalue = [74, 10]"] ;
322 -> 323 ;
324 [label="gini = 0.0\nsamples = 2\nvalue = [0, 2]"] ;
323 -> 324 ;
325 [label="X[24] <= 0.261\ngini = 0.176\nsamples = 82\nvalue = [74, 8]"] ;
323 -> 325 ;
326 [label="X[129] <= 0.529\ngini = 0.49\nsamples = 7\nvalue = [3, 4]"] ;
325 -> 326 ;
327 [label="gini = 0.0\nsamples = 4\nvalue = [0, 4]"] ;
326 -> 327 ;
328 [label="gini = 0.0\nsamples = 3\nvalue = [3, 0]"] ;
326 -> 328 ;
329 [label="X[33] <= 0.186\ngini = 0.101\nsamples = 75\nvalue = [71, 4]"] ;
325 -> 329 ;
330 [label="gini = 0.0\nsamples = 2\nvalue = [0, 2]"] ;
329 -> 330 ;
331 [label="X[10] <= 0.185\ngini = 0.053\nsamples = 73\nvalue = [71, 2]"] ;
329 -> 331 ;
332 [label="gini = 0.0\nsamples = 1\nvalue = [0, 1]"] ;
331 -> 332 ;
333 [label="X[119] <= 0.861\ngini = 0.027\nsamples = 72\nvalue = [71, 1]"] ;
331 -> 333 ;
334 [label="gini = 0.0\nsamples = 71\nvalue = [71, 0]"] ;
333 -> 334 ;
335 [label="gini = 0.0\nsamples = 1\nvalue = [0, 1]"] ;
333 -> 335 ;
336 [label="gini = 0.0\nsamples = 3\nvalue = [0, 3]"] ;
322 -> 336 ;
337 [label="X[168] <= 0.323\ngini = 0.32\nsamples = 10\nvalue = [2, 8]"] ;
317 -> 337 ;
338 [label="gini = 0.0\nsamples = 2\nvalue = [2, 0]"] ;
337 -> 338 ;
339 [label="gini = 0.0\nsamples = 8\nvalue = [0, 8]"] ;
337 -> 339 ;
340 [label="X[176] <= 0.416\ngini = 0.153\nsamples = 12\nvalue = [1, 11]"] ;
312 -> 340 ;
341 [label="gini = 0.0\nsamples = 1\nvalue = [1, 0]"] ;
340 -> 341 ;
342 [label="gini = 0.0\nsamples = 11\nvalue = [0, 11]"] ;
340 -> 342 ;
343 [label="X[190] <= 0.561\ngini = 0.498\nsamples = 115\nvalue = [61, 54]"] ;
259 -> 343 ;
344 [label="X[37] <= 0.469\ngini = 0.379\nsamples = 63\nvalue = [47, 16]"] ;
343 -> 344 ;
345 [label="X[83] <= 0.46\ngini = 0.486\nsamples = 24\nvalue = [10, 14]"] ;
344 -> 345 ;
346 [label="gini = 0.0\nsamples = 12\nvalue = [0, 12]"] ;
345 -> 346 ;
347 [label="X[145] <= 0.817\ngini = 0.278\nsamples = 12\nvalue = [10, 2]"] ;
345 -> 347 ;
348 [label="gini = 0.0\nsamples = 10\nvalue = [10, 0]"] ;
347 -> 348 ;
349 [label="gini = 0.0\nsamples = 2\nvalue = [0, 2]"] ;
347 -> 349 ;
350 [label="X[54] <= 0.274\ngini = 0.097\nsamples = 39\nvalue = [37, 2]"] ;
344 -> 350 ;
351 [label="gini = 0.0\nsamples = 2\nvalue = [0, 2]"] ;
350 -> 351 ;
352 [label="gini = 0.0\nsamples = 37\nvalue = [37, 0]"] ;
350 -> 352 ;
353 [label="X[71] <= 0.456\ngini = 0.393\nsamples = 52\nvalue = [14, 38]"] ;
343 -> 353 ;
354 [label="gini = 0.0\nsamples = 23\nvalue = [0, 23]"] ;
353 -> 354 ;
355 [label="X[15] <= 0.506\ngini = 0.499\nsamples = 29\nvalue = [14, 15]"] ;
353 -> 355 ;
356 [label="X[43] <= 0.233\ngini = 0.18\nsamples = 10\nvalue = [9, 1]"] ;
355 -> 356 ;
357 [label="gini = 0.0\nsamples = 1\nvalue = [0, 1]"] ;
356 -> 357 ;
358 [label="gini = 0.0\nsamples = 9\nvalue = [9, 0]"] ;
356 -> 358 ;
359 [label="X[146] <= 0.538\ngini = 0.388\nsamples = 19\nvalue = [5, 14]"] ;
355 -> 359 ;
360 [label="X[46] <= 0.339\ngini = 0.133\nsamples = 14\nvalue = [1, 13]"] ;
359 -> 360 ;
361 [label="gini = 0.0\nsamples = 1\nvalue = [1, 0]"] ;
360 -> 361 ;
362 [label="gini = 0.0\nsamples = 13\nvalue = [0, 13]"] ;
360 -> 362 ;
363 [label="X[158] <= 0.524\ngini = 0.32\nsamples = 5\nvalue = [4, 1]"] ;
359 -> 363 ;
364 [label="gini = 0.0\nsamples = 4\nvalue = [4, 0]"] ;
363 -> 364 ;
365 [label="gini = 0.0\nsamples = 1\nvalue = [0, 1]"] ;
363 -> 365 ;
366 [label="X[6] <= 0.645\ngini = 0.269\nsamples = 15460\nvalue = [12982, 2478]"] ;
212 -> 366 ;
367 [label="X[26] <= 0.772\ngini = 0.246\nsamples = 12904\nvalue = [11053, 1851]"] ;
366 -> 367 ;
368 [label="X[110] <= 0.645\ngini = 0.234\nsamples = 12277\nvalue = [10617, 1660]"] ;
367 -> 368 ;
369 [label="X[146] <= 0.363\ngini = 0.212\nsamples = 10118\nvalue = [8898, 1220]"] ;
368 -> 369 ;
370 [label="X[191] <= 0.81\ngini = 0.306\nsamples = 1600\nvalue = [1298, 302]"] ;
369 -> 370 ;
371 [label="X[80] <= 0.43\ngini = 0.29\nsamples = 1531\nvalue = [1262, 269]"] ;
370 -> 371 ;
372 [label="X[35] <= 0.759\ngini = 0.366\nsamples = 568\nvalue = [431, 137]"] ;
371 -> 372 ;
373 [label="X[22] <= 0.795\ngini = 0.338\nsamples = 530\nvalue = [416, 114]"] ;
372 -> 373 ;
374 [label="X[32] <= 0.781\ngini = 0.323\nsamples = 518\nvalue = [413, 105]"] ;
373 -> 374 ;
375 [label="X[109] <= 0.231\ngini = 0.295\nsamples = 483\nvalue = [396, 87]"] ;
374 -> 375 ;
376 [label="X[128] <= 0.398\ngini = 0.499\nsamples = 31\nvalue = [16, 15]"] ;
375 -> 376 ;
377 [label="X[68] <= 0.35\ngini = 0.219\nsamples = 16\nvalue = [14, 2]"] ;
376 -> 377 ;
378 [label="gini = 0.0\nsamples = 2\nvalue = [0, 2]"] ;
377 -> 378 ;
379 [label="gini = 0.0\nsamples = 14\nvalue = [14, 0]"] ;
377 -> 379 ;
380 [label="X[66] <= 0.438\ngini = 0.231\nsamples = 15\nvalue = [2, 13]"] ;
376 -> 380 ;
381 [label="gini = 0.0\nsamples = 2\nvalue = [2, 0]"] ;
380 -> 381 ;
382 [label="gini = 0.0\nsamples = 13\nvalue = [0, 13]"] ;
380 -> 382 ;
383 [label="X[148] <= 0.389\ngini = 0.268\nsamples = 452\nvalue = [380, 72]"] ;
375 -> 383 ;
384 [label="X[82] <= 0.698\ngini = 0.407\nsamples = 123\nvalue = [88, 35]"] ;
383 -> 384 ;
385 [label="X[107] <= 0.242\ngini = 0.335\nsamples = 108\nvalue = [85, 23]"] ;
384 -> 385 ;
386 [label="X[118] <= 0.426\ngini = 0.346\nsamples = 9\nvalue = [2, 7]"] ;
385 -> 386 ;
387 [label="gini = 0.0\nsamples = 2\nvalue = [2, 0]"] ;
386 -> 387 ;
388 [label="gini = 0.0\nsamples = 7\nvalue = [0, 7]"] ;
386 -> 388 ;
389 [label="X[194] <= 0.759\ngini = 0.271\nsamples = 99\nvalue = [83, 16]"] ;
385 -> 389 ;
390 [label="X[180] <= 0.798\ngini = 0.221\nsamples = 95\nvalue = [83, 12]"] ;
389 -> 390 ;
391 [label="X[154] <= 0.705\ngini = 0.177\nsamples = 92\nvalue = [83, 9]"] ;
390 -> 391 ;
392 [label="X[145] <= 0.246\ngini = 0.111\nsamples = 85\nvalue = [80, 5]"] ;
391 -> 392 ;
393 [label="gini = 0.0\nsamples = 2\nvalue = [0, 2]"] ;
392 -> 393 ;
394 [label="X[54] <= 0.199\ngini = 0.07\nsamples = 83\nvalue = [80, 3]"] ;
392 -> 394 ;
395 [label="gini = 0.0\nsamples = 1\nvalue = [0, 1]"] ;
394 -> 395 ;
396 [label="X[15] <= 0.85\ngini = 0.048\nsamples = 82\nvalue = [80, 2]"] ;
394 -> 396 ;
397 [label="X[114] <= 0.733\ngini = 0.024\nsamples = 81\nvalue = [80, 1]"] ;
396 -> 397 ;
398 [label="gini = 0.0\nsamples = 80\nvalue = [80, 0]"] ;
397 -> 398 ;
399 [label="gini = 0.0\nsamples = 1\nvalue = [0, 1]"] ;
397 -> 399 ;
400 [label="gini = 0.0\nsamples = 1\nvalue = [0, 1]"] ;
396 -> 400 ;
401 [label="X[169] <= 0.613\ngini = 0.49\nsamples = 7\nvalue = [3, 4]"] ;
391 -> 401 ;
402 [label="gini = 0.0\nsamples = 3\nvalue = [3, 0]"] ;
401 -> 402 ;
403 [label="gini = 0.0\nsamples = 4\nvalue = [0, 4]"] ;
401 -> 403 ;
404 [label="gini = 0.0\nsamples = 3\nvalue = [0, 3]"] ;
390 -> 404 ;
405 [label="gini = 0.0\nsamples = 4\nvalue = [0, 4]"] ;
389 -> 405 ;
406 [label="X[12] <= 0.679\ngini = 0.32\nsamples = 15\nvalue = [3, 12]"] ;
384 -> 406 ;
407 [label="gini = 0.0\nsamples = 11\nvalue = [0, 11]"] ;
406 -> 407 ;
408 [label="X[127] <= 0.667\ngini = 0.375\nsamples = 4\nvalue = [3, 1]"] ;
406 -> 408 ;
409 [label="gini = 0.0\nsamples = 3\nvalue = [3, 0]"] ;
408 -> 409 ;
410 [label="gini = 0.0\nsamples = 1\nvalue = [0, 1]"] ;
408 -> 410 ;
411 [label="X[94] <= 0.84\ngini = 0.2\nsamples = 329\nvalue = [292, 37]"] ;
383 -> 411 ;
412 [label="X[136] <= 0.149\ngini = 0.175\nsamples = 320\nvalue = [289, 31]"] ;
411 -> 412 ;
413 [label="gini = 0.0\nsamples = 3\nvalue = [0, 3]"] ;
412 -> 413 ;
414 [label="X[175] <= 0.158\ngini = 0.161\nsamples = 317\nvalue = [289, 28]"] ;
412 -> 414 ;
415 [label="gini = 0.0\nsamples = 3\nvalue = [0, 3]"] ;
414 -> 415 ;
416 [label="X[96] <= 0.834\ngini = 0.147\nsamples = 314\nvalue = [289, 25]"] ;
414 -> 416 ;
417 [label="X[41] <= 0.843\ngini = 0.132\nsamples = 310\nvalue = [288, 22]"] ;
416 -> 417 ;
418 [label="X[174] <= 0.234\ngini = 0.112\nsamples = 303\nvalue = [285, 18]"] ;
417 -> 418 ;
419 [label="gini = 0.0\nsamples = 2\nvalue = [0, 2]"] ;
418 -> 419 ;
420 [label="X[163] <= 0.892\ngini = 0.101\nsamples = 301\nvalue = [285, 16]"] ;
418 -> 420 ;
421 [label="X[97] <= 0.804\ngini = 0.084\nsamples = 296\nvalue = [283, 13]"] ;
420 -> 421 ;
422 [label="X[93] <= 0.808\ngini = 0.061\nsamples = 287\nvalue = [278, 9]"] ;
421 -> 422 ;
423 [label="X[193] <= 0.158\ngini = 0.048\nsamples = 284\nvalue = [277, 7]"] ;
422 -> 423 ;
424 [label="gini = 0.0\nsamples = 1\nvalue = [0, 1]"] ;
423 -> 424 ;
425 [label="X[6] <= 0.129\ngini = 0.042\nsamples = 283\nvalue = [277, 6]"] ;
423 -> 425 ;
426 [label="gini = 0.0\nsamples = 1\nvalue = [0, 1]"] ;
425 -> 426 ;
427 [label="X[82] <= 0.848\ngini = 0.035\nsamples = 282\nvalue = [277, 5]"] ;
425 -> 427 ;
428 [label="X[188] <= 0.829\ngini = 0.028\nsamples = 281\nvalue = [277, 4]"] ;
427 -> 428 ;
429 [label="X[133] <= 0.797\ngini = 0.021\nsamples = 280\nvalue = [277, 3]"] ;
428 -> 429 ;
430 [label="X[129] <= 0.785\ngini = 0.014\nsamples = 279\nvalue = [277, 2]"] ;
429 -> 430 ;
431 [label="X[0] <= 0.923\ngini = 0.007\nsamples = 278\nvalue = [277, 1]"] ;
430 -> 431 ;
432 [label="gini = 0.0\nsamples = 276\nvalue = [276, 0]"] ;
431 -> 432 ;
433 [label="X[164] <= 0.396\ngini = 0.5\nsamples = 2\nvalue = [1, 1]"] ;
431 -> 433 ;
434 [label="gini = 0.0\nsamples = 1\nvalue = [1, 0]"] ;
433 -> 434 ;
435 [label="gini = 0.0\nsamples = 1\nvalue = [0, 1]"] ;
433 -> 435 ;
436 [label="gini = 0.0\nsamples = 1\nvalue = [0, 1]"] ;
430 -> 436 ;
437 [label="gini = 0.0\nsamples = 1\nvalue = [0, 1]"] ;
429 -> 437 ;
438 [label="gini = 0.0\nsamples = 1\nvalue = [0, 1]"] ;
428 -> 438 ;
439 [label="gini = 0.0\nsamples = 1\nvalue = [0, 1]"] ;
427 -> 439 ;
440 [label="X[54] <= 0.441\ngini = 0.444\nsamples = 3\nvalue = [1, 2]"] ;
422 -> 440 ;
441 [label="gini = 0.0\nsamples = 1\nvalue = [1, 0]"] ;
440 -> 441 ;
442 [label="gini = 0.0\nsamples = 2\nvalue = [0, 2]"] ;
440 -> 442 ;
443 [label="X[68] <= 0.524\ngini = 0.494\nsamples = 9\nvalue = [5, 4]"] ;
421 -> 443 ;
444 [label="gini = 0.0\nsamples = 4\nvalue = [0, 4]"] ;
443 -> 444 ;
445 [label="gini = 0.0\nsamples = 5\nvalue = [5, 0]"] ;
443 -> 445 ;
446 [label="X[186] <= 0.508\ngini = 0.48\nsamples = 5\nvalue = [2, 3]"] ;
420 -> 446 ;
447 [label="gini = 0.0\nsamples = 2\nvalue = [2, 0]"] ;
446 -> 447 ;
448 [label="gini = 0.0\nsamples = 3\nvalue = [0, 3]"] ;
446 -> 448 ;
449 [label="X[94] <= 0.619\ngini = 0.49\nsamples = 7\nvalue = [3, 4]"] ;
417 -> 449 ;
450 [label="gini = 0.0\nsamples = 3\nvalue = [3, 0]"] ;
449 -> 450 ;
451 [label="gini = 0.0\nsamples = 4\nvalue = [0, 4]"] ;
449 -> 451 ;
452 [label="X[58] <= 0.318\ngini = 0.375\nsamples = 4\nvalue = [1, 3]"] ;
416 -> 452 ;
453 [label="gini = 0.0\nsamples = 1\nvalue = [1, 0]"] ;
452 -> 453 ;
454 [label="gini = 0.0\nsamples = 3\nvalue = [0, 3]"] ;
452 -> 454 ;
455 [label="X[169] <= 0.374\ngini = 0.444\nsamples = 9\nvalue = [3, 6]"] ;
411 -> 455 ;
456 [label="gini = 0.0\nsamples = 3\nvalue = [3, 0]"] ;
455 -> 456 ;
457 [label="gini = 0.0\nsamples = 6\nvalue = [0, 6]"] ;
455 -> 457 ;
458 [label="X[95] <= 0.471\ngini = 0.5\nsamples = 35\nvalue = [17, 18]"] ;
374 -> 458 ;
459 [label="gini = 0.0\nsamples = 9\nvalue = [9, 0]"] ;
458 -> 459 ;
460 [label="X[140] <= 0.691\ngini = 0.426\nsamples = 26\nvalue = [8, 18]"] ;
458 -> 460 ;
461 [label="X[190] <= 0.459\ngini = 0.245\nsamples = 21\nvalue = [3, 18]"] ;
460 -> 461 ;
462 [label="X[124] <= 0.626\ngini = 0.375\nsamples = 4\nvalue = [3, 1]"] ;
461 -> 462 ;
463 [label="gini = 0.0\nsamples = 3\nvalue = [3, 0]"] ;
462 -> 463 ;
464 [label="gini = 0.0\nsamples = 1\nvalue = [0, 1]"] ;
462 -> 464 ;
465 [label="gini = 0.0\nsamples = 17\nvalue = [0, 17]"] ;
461 -> 465 ;
466 [label="gini = 0.0\nsamples = 5\nvalue = [5, 0]"] ;
460 -> 466 ;
467 [label="X[183] <= 0.338\ngini = 0.375\nsamples = 12\nvalue = [3, 9]"] ;
373 -> 467 ;
468 [label="gini = 0.0\nsamples = 3\nvalue = [3, 0]"] ;
467 -> 468 ;
469 [label="gini = 0.0\nsamples = 9\nvalue = [0, 9]"] ;
467 -> 469 ;
470 [label="X[52] <= 0.57\ngini = 0.478\nsamples = 38\nvalue = [15, 23]"] ;
372 -> 470 ;
471 [label="X[7] <= 0.64\ngini = 0.444\nsamples = 21\nvalue = [14, 7]"] ;
470 -> 471 ;
472 [label="X[96] <= 0.57\ngini = 0.219\nsamples = 16\nvalue = [14, 2]"] ;
471 -> 472 ;
473 [label="gini = 0.0\nsamples = 13\nvalue = [13, 0]"] ;
472 -> 473 ;
474 [label="X[113] <= 0.7\ngini = 0.444\nsamples = 3\nvalue = [1, 2]"] ;
472 -> 474 ;
475 [label="gini = 0.0\nsamples = 2\nvalue = [0, 2]"] ;
474 -> 475 ;
476 [label="gini = 0.0\nsamples = 1\nvalue = [1, 0]"] ;
474 -> 476 ;
477 [label="gini = 0.0\nsamples = 5\nvalue = [0, 5]"] ;
471 -> 477 ;
478 [label="X[69] <= 0.732\ngini = 0.111\nsamples = 17\nvalue = [1, 16]"] ;
470 -> 478 ;
479 [label="gini = 0.0\nsamples = 16\nvalue = [0, 16]"] ;
478 -> 479 ;
480 [label="gini = 0.0\nsamples = 1\nvalue = [1, 0]"] ;
478 -> 480 ;
481 [label="X[83] <= 0.18\ngini = 0.237\nsamples = 963\nvalue = [831, 132]"] ;
371 -> 481 ;
482 [label="X[109] <= 0.393\ngini = 0.499\nsamples = 19\nvalue = [9, 10]"] ;
481 -> 482 ;
483 [label="gini = 0.0\nsamples = 7\nvalue = [7, 0]"] ;
482 -> 483 ;
484 [label="X[70] <= 0.641\ngini = 0.278\nsamples = 12\nvalue = [2, 10]"] ;
482 -> 484 ;
485 [label="gini = 0.0\nsamples = 10\nvalue = [0, 10]"] ;
484 -> 485 ;
486 [label="gini = 0.0\nsamples = 2\nvalue = [2, 0]"] ;
484 -> 486 ;
487 [label="X[123] <= 0.283\ngini = 0.225\nsamples = 944\nvalue = [822, 122]"] ;
481 -> 487 ;
488 [label="X[22] <= 0.656\ngini = 0.424\nsamples = 82\nvalue = [57, 25]"] ;
487 -> 488 ;
489 [label="X[188] <= 0.23\ngini = 0.375\nsamples = 76\nvalue = [57, 19]"] ;
488 -> 489 ;
490 [label="gini = 0.0\nsamples = 4\nvalue = [0, 4]"] ;
489 -> 490 ;
491 [label="X[76] <= 0.214\ngini = 0.33\nsamples = 72\nvalue = [57, 15]"] ;
489 -> 491 ;
492 [label="gini = 0.0\nsamples = 4\nvalue = [0, 4]"] ;
491 -> 492 ;
493 [label="X[135] <= 0.833\ngini = 0.271\nsamples = 68\nvalue = [57, 11]"] ;
491 -> 493 ;
494 [label="X[137] <= 0.728\ngini = 0.216\nsamples = 65\nvalue = [57, 8]"] ;
493 -> 494 ;
495 [label="X[116] <= 0.751\ngini = 0.1\nsamples = 57\nvalue = [54, 3]"] ;
494 -> 495 ;
496 [label="X[106] <= 0.784\ngini = 0.069\nsamples = 56\nvalue = [54, 2]"] ;
495 -> 496 ;
497 [label="X[64] <= 0.16\ngini = 0.036\nsamples = 55\nvalue = [54, 1]"] ;
496 -> 497 ;
498 [label="gini = 0.0\nsamples = 1\nvalue = [0, 1]"] ;
497 -> 498 ;
499 [label="gini = 0.0\nsamples = 54\nvalue = [54, 0]"] ;
497 -> 499 ;
500 [label="gini = 0.0\nsamples = 1\nvalue = [0, 1]"] ;
496 -> 500 ;
501 [label="gini = 0.0\nsamples = 1\nvalue = [0, 1]"] ;
495 -> 501 ;
502 [label="X[101] <= 0.466\ngini = 0.469\nsamples = 8\nvalue = [3, 5]"] ;
494 -> 502 ;
503 [label="gini = 0.0\nsamples = 3\nvalue = [3, 0]"] ;
502 -> 503 ;
504 [label="gini = 0.0\nsamples = 5\nvalue = [0, 5]"] ;
502 -> 504 ;
505 [label="gini = 0.0\nsamples = 3\nvalue = [0, 3]"] ;
493 -> 505 ;
506 [label="gini = 0.0\nsamples = 6\nvalue = [0, 6]"] ;
488 -> 506 ;
507 [label="X[50] <= 0.212\ngini = 0.2\nsamples = 862\nvalue = [765, 97]"] ;
487 -> 507 ;
508 [label="X[57] <= 0.563\ngini = 0.482\nsamples = 32\nvalue = [19, 13]"] ;
507 -> 508 ;
509 [label="X[94] <= 0.335\ngini = 0.455\nsamples = 20\nvalue = [7, 13]"] ;
508 -> 509 ;
510 [label="gini = 0.0\nsamples = 6\nvalue = [6, 0]"] ;
509 -> 510 ;
511 [label="X[191] <= 0.64\ngini = 0.133\nsamples = 14\nvalue = [1, 13]"] ;
509 -> 511 ;
512 [label="gini = 0.0\nsamples = 13\nvalue = [0, 13]"] ;
511 -> 512 ;
513 [label="gini = 0.0\nsamples = 1\nvalue = [1, 0]"] ;
511 -> 513 ;
514 [label="gini = 0.0\nsamples = 12\nvalue = [12, 0]"] ;
508 -> 514 ;
515 [label="X[99] <= 0.858\ngini = 0.182\nsamples = 830\nvalue = [746, 84]"] ;
507 -> 515 ;
516 [label="X[28] <= 0.235\ngini = 0.168\nsamples = 812\nvalue = [737, 75]"] ;
515 -> 516 ;
517 [label="gini = 0.0\nsamples = 3\nvalue = [0, 3]"] ;
516 -> 517 ;
518 [label="X[155] <= 0.699\ngini = 0.162\nsamples = 809\nvalue = [737, 72]"] ;
516 -> 518 ;
519 [label="X[22] <= 0.752\ngini = 0.134\nsamples = 734\nvalue = [681, 53]"] ;
518 -> 519 ;
520 [label="X[3] <= 0.881\ngini = 0.118\nsamples = 712\nvalue = [667, 45]"] ;
519 -> 520 ;
521 [label="X[165] <= 0.108\ngini = 0.112\nsamples = 708\nvalue = [666, 42]"] ;
520 -> 521 ;
522 [label="gini = 0.0\nsamples = 2\nvalue = [0, 2]"] ;
521 -> 522 ;
523 [label="X[107] <= 0.134\ngini = 0.107\nsamples = 706\nvalue = [666, 40]"] ;
521 -> 523 ;
524 [label="gini = 0.0\nsamples = 2\nvalue = [0, 2]"] ;
523 -> 524 ;
525 [label="X[5] <= 0.884\ngini = 0.102\nsamples = 704\nvalue = [666, 38]"] ;
523 -> 525 ;
526 [label="X[185] <= 0.179\ngini = 0.091\nsamples = 693\nvalue = [660, 33]"] ;
525 -> 526 ;
527 [label="X[91] <= 0.538\ngini = 0.444\nsamples = 3\nvalue = [1, 2]"] ;
526 -> 527 ;
528 [label="gini = 0.0\nsamples = 1\nvalue = [1, 0]"] ;
527 -> 528 ;
529 [label="gini = 0.0\nsamples = 2\nvalue = [0, 2]"] ;
527 -> 529 ;
530 [label="X[43] <= 0.126\ngini = 0.086\nsamples = 690\nvalue = [659, 31]"] ;
526 -> 530 ;
531 [label="X[102] <= 0.463\ngini = 0.444\nsamples = 3\nvalue = [1, 2]"] ;
530 -> 531 ;
532 [label="gini = 0.0\nsamples = 2\nvalue = [0, 2]"] ;
531 -> 532 ;
533 [label="gini = 0.0\nsamples = 1\nvalue = [1, 0]"] ;
531 -> 533 ;
534 [label="X[99] <= 0.733\ngini = 0.081\nsamples = 687\nvalue = [658, 29]"] ;
530 -> 534 ;
535 [label="X[145] <= 0.914\ngini = 0.061\nsamples = 636\nvalue = [616, 20]"] ;
534 -> 535 ;
536 [label="X[67] <= 0.818\ngini = 0.058\nsamples = 635\nvalue = [616, 19]"] ;
535 -> 536 ;
537 [label="X[115] <= 0.106\ngini = 0.055\nsamples = 634\nvalue = [616, 18]"] ;
536 -> 537 ;
538 [label="gini = 0.0\nsamples = 1\nvalue = [0, 1]"] ;
537 -> 538 ;
539 [label="X[121] <= 0.109\ngini = 0.052\nsamples = 633\nvalue = [616, 17]"] ;
537 -> 539 ;
540 [label="gini = 0.0\nsamples = 1\nvalue = [0, 1]"] ;
539 -> 540 ;
541 [label="X[114] <= 0.8\ngini = 0.049\nsamples = 632\nvalue = [616, 16]"] ;
539 -> 541 ;
542 [label="X[46] <= 0.919\ngini = 0.046\nsamples = 631\nvalue = [616, 15]"] ;
541 -> 542 ;
543 [label="X[138] <= 0.144\ngini = 0.043\nsamples = 630\nvalue = [616, 14]"] ;
542 -> 543 ;
544 [label="gini = 0.0\nsamples = 1\nvalue = [0, 1]"] ;
543 -> 544 ;
545 [label="X[56] <= 0.138\ngini = 0.04\nsamples = 629\nvalue = [616, 13]"] ;
543 -> 545 ;
546 [label="gini = 0.0\nsamples = 1\nvalue = [0, 1]"] ;
545 -> 546 ;
547 [label="X[197] <= 0.122\ngini = 0.037\nsamples = 628\nvalue = [616, 12]"] ;
545 -> 547 ;
548 [label="gini = 0.0\nsamples = 1\nvalue = [0, 1]"] ;
547 -> 548 ;
549 [label="X[76] <= 0.12\ngini = 0.034\nsamples = 627\nvalue = [616, 11]"] ;
547 -> 549 ;
550 [label="X[167] <= 0.643\ngini = 0.48\nsamples = 5\nvalue = [3, 2]"] ;
549 -> 550 ;
551 [label="gini = 0.0\nsamples = 3\nvalue = [3, 0]"] ;
550 -> 551 ;
552 [label="gini = 0.0\nsamples = 2\nvalue = [0, 2]"] ;
550 -> 552 ;
553 [label="X[128] <= 0.75\ngini = 0.029\nsamples = 622\nvalue = [613, 9]"] ;
549 -> 553 ;
554 [label="X[26] <= 0.765\ngini = 0.017\nsamples = 601\nvalue = [596, 5]"] ;
553 -> 554 ;
555 [label="X[134] <= 0.906\ngini = 0.013\nsamples = 599\nvalue = [595, 4]"] ;
554 -> 555 ;
556 [label="X[14] <= 0.841\ngini = 0.01\nsamples = 597\nvalue = [594, 3]"] ;
555 -> 556 ;
557 [label="X[113] <= 0.864\ngini = 0.007\nsamples = 595\nvalue = [593, 2]"] ;
556 -> 557 ;
558 [label="X[20] <= 0.881\ngini = 0.003\nsamples = 592\nvalue = [591, 1]"] ;
557 -> 558 ;
559 [label="gini = 0.0\nsamples = 589\nvalue = [589, 0]"] ;
558 -> 559 ;
560 [label="X[98] <= 0.618\ngini = 0.444\nsamples = 3\nvalue = [2, 1]"] ;
558 -> 560 ;
561 [label="gini = 0.0\nsamples = 1\nvalue = [0, 1]"] ;
560 -> 561 ;
562 [label="gini = 0.0\nsamples = 2\nvalue = [2, 0]"] ;
560 -> 562 ;
563 [label="X[154] <= 0.323\ngini = 0.444\nsamples = 3\nvalue = [2, 1]"] ;
557 -> 563 ;
564 [label="gini = 0.0\nsamples = 2\nvalue = [2, 0]"] ;
563 -> 564 ;
565 [label="gini = 0.0\nsamples = 1\nvalue = [0, 1]"] ;
563 -> 565 ;
566 [label="X[81] <= 0.117\ngini = 0.5\nsamples = 2\nvalue = [1, 1]"] ;
556 -> 566 ;
567 [label="gini = 0.0\nsamples = 1\nvalue = [0, 1]"] ;
566 -> 567 ;
568 [label="gini = 0.0\nsamples = 1\nvalue = [1, 0]"] ;
566 -> 568 ;
569 [label="X[159] <= 0.444\ngini = 0.5\nsamples = 2\nvalue = [1, 1]"] ;
555 -> 569 ;
570 [label="gini = 0.0\nsamples = 1\nvalue = [0, 1]"] ;
569 -> 570 ;
571 [label="gini = 0.0\nsamples = 1\nvalue = [1, 0]"] ;
569 -> 571 ;
572 [label="X[54] <= 0.31\ngini = 0.5\nsamples = 2\nvalue = [1, 1]"] ;
554 -> 572 ;
573 [label="gini = 0.0\nsamples = 1\nvalue = [0, 1]"] ;
572 -> 573 ;
574 [label="gini = 0.0\nsamples = 1\nvalue = [1, 0]"] ;
572 -> 574 ;
575 [label="X[5] <= 0.638\ngini = 0.308\nsamples = 21\nvalue = [17, 4]"] ;
553 -> 575 ;
576 [label="X[138] <= 0.392\ngini = 0.111\nsamples = 17\nvalue = [16, 1]"] ;
575 -> 576 ;
577 [label="gini = 0.0\nsamples = 1\nvalue = [0, 1]"] ;
576 -> 577 ;
578 [label="gini = 0.0\nsamples = 16\nvalue = [16, 0]"] ;
576 -> 578 ;
579 [label="X[46] <= 0.629\ngini = 0.375\nsamples = 4\nvalue = [1, 3]"] ;
575 -> 579 ;
580 [label="gini = 0.0\nsamples = 3\nvalue = [0, 3]"] ;
579 -> 580 ;
581 [label="gini = 0.0\nsamples = 1\nvalue = [1, 0]"] ;
579 -> 581 ;
582 [label="gini = 0.0\nsamples = 1\nvalue = [0, 1]"] ;
542 -> 582 ;
583 [label="gini = 0.0\nsamples = 1\nvalue = [0, 1]"] ;
541 -> 583 ;
584 [label="gini = 0.0\nsamples = 1\nvalue = [0, 1]"] ;
536 -> 584 ;
585 [label="gini = 0.0\nsamples = 1\nvalue = [0, 1]"] ;
535 -> 585 ;
586 [label="X[176] <= 0.23\ngini = 0.291\nsamples = 51\nvalue = [42, 9]"] ;
534 -> 586 ;
587 [label="gini = 0.0\nsamples = 3\nvalue = [0, 3]"] ;
586 -> 587 ;
588 [label="X[199] <= 0.749\ngini = 0.219\nsamples = 48\nvalue = [42, 6]"] ;
586 -> 588 ;
589 [label="X[140] <= 0.288\ngini = 0.127\nsamples = 44\nvalue = [41, 3]"] ;
588 -> 589 ;
590 [label="X[110] <= 0.345\ngini = 0.444\nsamples = 3\nvalue = [1, 2]"] ;
589 -> 590 ;
591 [label="gini = 0.0\nsamples = 1\nvalue = [1, 0]"] ;
590 -> 591 ;
592 [label="gini = 0.0\nsamples = 2\nvalue = [0, 2]"] ;
590 -> 592 ;
593 [label="X[64] <= 0.254\ngini = 0.048\nsamples = 41\nvalue = [40, 1]"] ;
589 -> 593 ;
594 [label="gini = 0.0\nsamples = 1\nvalue = [0, 1]"] ;
593 -> 594 ;
595 [label="gini = 0.0\nsamples = 40\nvalue = [40, 0]"] ;
593 -> 595 ;
596 [label="X[81] <= 0.147\ngini = 0.375\nsamples = 4\nvalue = [1, 3]"] ;
588 -> 596 ;
597 [label="gini = 0.0\nsamples = 1\nvalue = [1, 0]"] ;
596 -> 597 ;
598 [label="gini = 0.0\nsamples = 3\nvalue = [0, 3]"] ;
596 -> 598 ;
599 [label="X[96] <= 0.551\ngini = 0.496\nsamples = 11\nvalue = [6, 5]"] ;
525 -> 599 ;
600 [label="X[166] <= 0.595\ngini = 0.278\nsamples = 6\nvalue = [1, 5]"] ;
599 -> 600 ;
601 [label="gini = 0.0\nsamples = 5\nvalue = [0, 5]"] ;
600 -> 601 ;
602 [label="gini = 0.0\nsamples = 1\nvalue = [1, 0]"] ;
600 -> 602 ;
603 [label="gini = 0.0\nsamples = 5\nvalue = [5, 0]"] ;
599 -> 603 ;
604 [label="X[62] <= 0.385\ngini = 0.375\nsamples = 4\nvalue = [1, 3]"] ;
520 -> 604 ;
605 [label="gini = 0.0\nsamples = 1\nvalue = [1, 0]"] ;
604 -> 605 ;
606 [label="gini = 0.0\nsamples = 3\nvalue = [0, 3]"] ;
604 -> 606 ;
607 [label="X[10] <= 0.571\ngini = 0.463\nsamples = 22\nvalue = [14, 8]"] ;
519 -> 607 ;
608 [label="X[53] <= 0.648\ngini = 0.397\nsamples = 11\nvalue = [3, 8]"] ;
607 -> 608 ;
609 [label="gini = 0.0\nsamples = 8\nvalue = [0, 8]"] ;
608 -> 609 ;
610 [label="gini = 0.0\nsamples = 3\nvalue = [3, 0]"] ;
608 -> 610 ;
611 [label="gini = 0.0\nsamples = 11\nvalue = [11, 0]"] ;
607 -> 611 ;
612 [label="X[147] <= 0.686\ngini = 0.378\nsamples = 75\nvalue = [56, 19]"] ;
518 -> 612 ;
613 [label="X[149] <= 0.345\ngini = 0.309\nsamples = 68\nvalue = [55, 13]"] ;
612 -> 613 ;
614 [label="gini = 0.0\nsamples = 4\nvalue = [0, 4]"] ;
613 -> 614 ;
615 [label="X[63] <= 0.369\ngini = 0.242\nsamples = 64\nvalue = [55, 9]"] ;
613 -> 615 ;
616 [label="X[131] <= 0.501\ngini = 0.496\nsamples = 11\nvalue = [5, 6]"] ;
615 -> 616 ;
617 [label="gini = 0.0\nsamples = 5\nvalue = [0, 5]"] ;
616 -> 617 ;
618 [label="X[120] <= 0.516\ngini = 0.278\nsamples = 6\nvalue = [5, 1]"] ;
616 -> 618 ;
619 [label="gini = 0.0\nsamples = 5\nvalue = [5, 0]"] ;
618 -> 619 ;
620 [label="gini = 0.0\nsamples = 1\nvalue = [0, 1]"] ;
618 -> 620 ;
621 [label="X[17] <= 0.353\ngini = 0.107\nsamples = 53\nvalue = [50, 3]"] ;
615 -> 621 ;
622 [label="gini = 0.0\nsamples = 2\nvalue = [0, 2]"] ;
621 -> 622 ;
623 [label="X[101] <= 0.176\ngini = 0.038\nsamples = 51\nvalue = [50, 1]"] ;
621 -> 623 ;
624 [label="gini = 0.0\nsamples = 1\nvalue = [0, 1]"] ;
623 -> 624 ;
625 [label="gini = 0.0\nsamples = 50\nvalue = [50, 0]"] ;
623 -> 625 ;
626 [label="X[118] <= 0.673\ngini = 0.245\nsamples = 7\nvalue = [1, 6]"] ;
612 -> 626 ;
627 [label="gini = 0.0\nsamples = 6\nvalue = [0, 6]"] ;
626 -> 627 ;
628 [label="gini = 0.0\nsamples = 1\nvalue = [1, 0]"] ;
626 -> 628 ;
629 [label="X[120] <= 0.493\ngini = 0.5\nsamples = 18\nvalue = [9, 9]"] ;
515 -> 629 ;
630 [label="X[189] <= 0.63\ngini = 0.298\nsamples = 11\nvalue = [9, 2]"] ;
629 -> 630 ;
631 [label="gini = 0.0\nsamples = 9\nvalue = [9, 0]"] ;
630 -> 631 ;
632 [label="gini = 0.0\nsamples = 2\nvalue = [0, 2]"] ;
630 -> 632 ;
633 [label="gini = 0.0\nsamples = 7\nvalue = [0, 7]"] ;
629 -> 633 ;
634 [label="X[48] <= 0.579\ngini = 0.499\nsamples = 69\nvalue = [36, 33]"] ;
370 -> 634 ;
635 [label="X[21] <= 0.485\ngini = 0.46\nsamples = 53\nvalue = [34, 19]"] ;
634 -> 635 ;
636 [label="X[48] <= 0.475\ngini = 0.483\nsamples = 27\nvalue = [11, 16]"] ;
635 -> 636 ;
637 [label="X[26] <= 0.296\ngini = 0.278\nsamples = 18\nvalue = [3, 15]"] ;
636 -> 637 ;
638 [label="gini = 0.0\nsamples = 2\nvalue = [2, 0]"] ;
637 -> 638 ;
639 [label="X[175] <= 0.732\ngini = 0.117\nsamples = 16\nvalue = [1, 15]"] ;
637 -> 639 ;
640 [label="gini = 0.0\nsamples = 15\nvalue = [0, 15]"] ;
639 -> 640 ;
641 [label="gini = 0.0\nsamples = 1\nvalue = [1, 0]"] ;
639 -> 641 ;
642 [label="X[12] <= 0.355\ngini = 0.198\nsamples = 9\nvalue = [8, 1]"] ;
636 -> 642 ;
643 [label="gini = 0.0\nsamples = 1\nvalue = [0, 1]"] ;
642 -> 643 ;
644 [label="gini = 0.0\nsamples = 8\nvalue = [8, 0]"] ;
642 -> 644 ;
645 [label="X[81] <= 0.238\ngini = 0.204\nsamples = 26\nvalue = [23, 3]"] ;
635 -> 645 ;
646 [label="gini = 0.0\nsamples = 22\nvalue = [22, 0]"] ;
645 -> 646 ;
647 [label="X[107] <= 0.411\ngini = 0.375\nsamples = 4\nvalue = [1, 3]"] ;
645 -> 647 ;
648 [label="gini = 0.0\nsamples = 1\nvalue = [1, 0]"] ;
647 -> 648 ;
649 [label="gini = 0.0\nsamples = 3\nvalue = [0, 3]"] ;
647 -> 649 ;
650 [label="X[20] <= 0.561\ngini = 0.219\nsamples = 16\nvalue = [2, 14]"] ;
634 -> 650 ;
651 [label="gini = 0.0\nsamples = 13\nvalue = [0, 13]"] ;
650 -> 651 ;
652 [label="X[195] <= 0.377\ngini = 0.444\nsamples = 3\nvalue = [2, 1]"] ;
650 -> 652 ;
653 [label="gini = 0.0\nsamples = 1\nvalue = [0, 1]"] ;
652 -> 653 ;
654 [label="gini = 0.0\nsamples = 2\nvalue = [2, 0]"] ;
652 -> 654 ;
655 [label="X[139] <= 0.305\ngini = 0.192\nsamples = 8518\nvalue = [7600, 918]"] ;
369 -> 655 ;
656 [label="X[164] <= 0.825\ngini = 0.336\nsamples = 636\nvalue = [500, 136]"] ;
655 -> 656 ;
657 [label="X[144] <= 0.456\ngini = 0.316\nsamples = 609\nvalue = [489, 120]"] ;
656 -> 657 ;
658 [label="X[118] <= 0.778\ngini = 0.186\nsamples = 241\nvalue = [216, 25]"] ;
657 -> 658 ;
659 [label="X[157] <= 0.76\ngini = 0.156\nsamples = 234\nvalue = [214, 20]"] ;
658 -> 659 ;
660 [label="X[35] <= 0.798\ngini = 0.112\nsamples = 218\nvalue = [205, 13]"] ;
659 -> 660 ;
661 [label="X[178] <= 0.187\ngini = 0.097\nsamples = 216\nvalue = [205, 11]"] ;
660 -> 661 ;
662 [label="gini = 0.0\nsamples = 2\nvalue = [0, 2]"] ;
661 -> 662 ;
663 [label="X[161] <= 0.241\ngini = 0.081\nsamples = 214\nvalue = [205, 9]"] ;
661 -> 663 ;
664 [label="gini = 0.0\nsamples = 2\nvalue = [0, 2]"] ;
663 -> 664 ;
665 [label="X[60] <= 0.927\ngini = 0.064\nsamples = 212\nvalue = [205, 7]"] ;
663 -> 665 ;
666 [label="X[173] <= 0.803\ngini = 0.047\nsamples = 209\nvalue = [204, 5]"] ;
665 -> 666 ;
667 [label="X[163] <= 0.917\ngini = 0.029\nsamples = 206\nvalue = [203, 3]"] ;
666 -> 667 ;
668 [label="X[85] <= 0.819\ngini = 0.019\nsamples = 205\nvalue = [203, 2]"] ;
667 -> 668 ;
669 [label="X[57] <= 0.135\ngini = 0.01\nsamples = 204\nvalue = [203, 1]"] ;
668 -> 669 ;
670 [label="gini = 0.0\nsamples = 1\nvalue = [0, 1]"] ;
669 -> 670 ;
671 [label="gini = 0.0\nsamples = 203\nvalue = [203, 0]"] ;
669 -> 671 ;
672 [label="gini = 0.0\nsamples = 1\nvalue = [0, 1]"] ;
668 -> 672 ;
673 [label="gini = 0.0\nsamples = 1\nvalue = [0, 1]"] ;
667 -> 673 ;
674 [label="X[124] <= 0.502\ngini = 0.444\nsamples = 3\nvalue = [1, 2]"] ;
666 -> 674 ;
675 [label="gini = 0.0\nsamples = 1\nvalue = [1, 0]"] ;
674 -> 675 ;
676 [label="gini = 0.0\nsamples = 2\nvalue = [0, 2]"] ;
674 -> 676 ;
677 [label="X[59] <= 0.356\ngini = 0.444\nsamples = 3\nvalue = [1, 2]"] ;
665 -> 677 ;
678 [label="gini = 0.0\nsamples = 2\nvalue = [0, 2]"] ;
677 -> 678 ;
679 [label="gini = 0.0\nsamples = 1\nvalue = [1, 0]"] ;
677 -> 679 ;
680 [label="gini = 0.0\nsamples = 2\nvalue = [0, 2]"] ;
660 -> 680 ;
681 [label="X[35] <= 0.583\ngini = 0.492\nsamples = 16\nvalue = [9, 7]"] ;
659 -> 681 ;
682 [label="X[38] <= 0.559\ngini = 0.198\nsamples = 9\nvalue = [8, 1]"] ;
681 -> 682 ;
683 [label="gini = 0.0\nsamples = 8\nvalue = [8, 0]"] ;
682 -> 683 ;
684 [label="gini = 0.0\nsamples = 1\nvalue = [0, 1]"] ;
682 -> 684 ;
685 [label="X[193] <= 0.658\ngini = 0.245\nsamples = 7\nvalue = [1, 6]"] ;
681 -> 685 ;
686 [label="gini = 0.0\nsamples = 6\nvalue = [0, 6]"] ;
685 -> 686 ;
687 [label="gini = 0.0\nsamples = 1\nvalue = [1, 0]"] ;
685 -> 687 ;
688 [label="X[105] <= 0.524\ngini = 0.408\nsamples = 7\nvalue = [2, 5]"] ;
658 -> 688 ;
689 [label="gini = 0.0\nsamples = 5\nvalue = [0, 5]"] ;
688 -> 689 ;
690 [label="gini = 0.0\nsamples = 2\nvalue = [2, 0]"] ;
688 -> 690 ;
691 [label="X[187] <= 0.748\ngini = 0.383\nsamples = 368\nvalue = [273, 95]"] ;
657 -> 691 ;
692 [label="X[99] <= 0.778\ngini = 0.35\nsamples = 331\nvalue = [256, 75]"] ;
691 -> 692 ;
693 [label="X[69] <= 0.709\ngini = 0.328\nsamples = 319\nvalue = [253, 66]"] ;
692 -> 693 ;
694 [label="X[70] <= 0.721\ngini = 0.287\nsamples = 282\nvalue = [233, 49]"] ;
693 -> 694 ;
695 [label="X[91] <= 0.722\ngini = 0.24\nsamples = 251\nvalue = [216, 35]"] ;
694 -> 695 ;
696 [label="X[22] <= 0.678\ngini = 0.183\nsamples = 226\nvalue = [203, 23]"] ;
695 -> 696 ;
697 [label="X[121] <= 0.156\ngini = 0.141\nsamples = 209\nvalue = [193, 16]"] ;
696 -> 697 ;
698 [label="X[151] <= 0.448\ngini = 0.375\nsamples = 4\nvalue = [1, 3]"] ;
697 -> 698 ;
699 [label="gini = 0.0\nsamples = 1\nvalue = [1, 0]"] ;
698 -> 699 ;
700 [label="gini = 0.0\nsamples = 3\nvalue = [0, 3]"] ;
698 -> 700 ;
701 [label="X[43] <= 0.119\ngini = 0.119\nsamples = 205\nvalue = [192, 13]"] ;
697 -> 701 ;
702 [label="gini = 0.0\nsamples = 2\nvalue = [0, 2]"] ;
701 -> 702 ;
703 [label="X[0] <= 0.862\ngini = 0.103\nsamples = 203\nvalue = [192, 11]"] ;
701 -> 703 ;
704 [label="X[66] <= 0.847\ngini = 0.086\nsamples = 201\nvalue = [192, 9]"] ;
703 -> 704 ;
705 [label="X[149] <= 0.348\ngini = 0.068\nsamples = 198\nvalue = [191, 7]"] ;
704 -> 705 ;
706 [label="X[187] <= 0.32\ngini = 0.469\nsamples = 8\nvalue = [5, 3]"] ;
705 -> 706 ;
707 [label="gini = 0.0\nsamples = 3\nvalue = [0, 3]"] ;
706 -> 707 ;
708 [label="gini = 0.0\nsamples = 5\nvalue = [5, 0]"] ;
706 -> 708 ;
709 [label="X[54] <= 0.854\ngini = 0.041\nsamples = 190\nvalue = [186, 4]"] ;
705 -> 709 ;
710 [label="X[38] <= 0.763\ngini = 0.031\nsamples = 189\nvalue = [186, 3]"] ;
709 -> 710 ;
711 [label="X[148] <= 0.152\ngini = 0.021\nsamples = 188\nvalue = [186, 2]"] ;
710 -> 711 ;
712 [label="gini = 0.0\nsamples = 1\nvalue = [0, 1]"] ;
711 -> 712 ;
713 [label="X[64] <= 0.828\ngini = 0.011\nsamples = 187\nvalue = [186, 1]"] ;
711 -> 713 ;
714 [label="gini = 0.0\nsamples = 186\nvalue = [186, 0]"] ;
713 -> 714 ;
715 [label="gini = 0.0\nsamples = 1\nvalue = [0, 1]"] ;
713 -> 715 ;
716 [label="gini = 0.0\nsamples = 1\nvalue = [0, 1]"] ;
710 -> 716 ;
717 [label="gini = 0.0\nsamples = 1\nvalue = [0, 1]"] ;
709 -> 717 ;
718 [label="X[75] <= 0.634\ngini = 0.444\nsamples = 3\nvalue = [1, 2]"] ;
704 -> 718 ;
719 [label="gini = 0.0\nsamples = 2\nvalue = [0, 2]"] ;
718 -> 719 ;
720 [label="gini = 0.0\nsamples = 1\nvalue = [1, 0]"] ;
718 -> 720 ;
721 [label="gini = 0.0\nsamples = 2\nvalue = [0, 2]"] ;
703 -> 721 ;
722 [label="X[120] <= 0.45\ngini = 0.484\nsamples = 17\nvalue = [10, 7]"] ;
696 -> 722 ;
723 [label="X[5] <= 0.589\ngini = 0.346\nsamples = 9\nvalue = [2, 7]"] ;
722 -> 723 ;
724 [label="gini = 0.0\nsamples = 2\nvalue = [2, 0]"] ;
723 -> 724 ;
725 [label="gini = 0.0\nsamples = 7\nvalue = [0, 7]"] ;
723 -> 725 ;
726 [label="gini = 0.0\nsamples = 8\nvalue = [8, 0]"] ;
722 -> 726 ;
727 [label="X[136] <= 0.445\ngini = 0.499\nsamples = 25\nvalue = [13, 12]"] ;
695 -> 727 ;
728 [label="gini = 0.0\nsamples = 7\nvalue = [0, 7]"] ;
727 -> 728 ;
729 [label="X[9] <= 0.336\ngini = 0.401\nsamples = 18\nvalue = [13, 5]"] ;
727 -> 729 ;
730 [label="X[163] <= 0.271\ngini = 0.32\nsamples = 5\nvalue = [1, 4]"] ;
729 -> 730 ;
731 [label="gini = 0.0\nsamples = 1\nvalue = [1, 0]"] ;
730 -> 731 ;
732 [label="gini = 0.0\nsamples = 4\nvalue = [0, 4]"] ;
730 -> 732 ;
733 [label="X[168] <= 0.652\ngini = 0.142\nsamples = 13\nvalue = [12, 1]"] ;
729 -> 733 ;
734 [label="gini = 0.0\nsamples = 12\nvalue = [12, 0]"] ;
733 -> 734 ;
735 [label="gini = 0.0\nsamples = 1\nvalue = [0, 1]"] ;
733 -> 735 ;
736 [label="X[168] <= 0.615\ngini = 0.495\nsamples = 31\nvalue = [17, 14]"] ;
694 -> 736 ;
737 [label="X[162] <= 0.437\ngini = 0.413\nsamples = 24\nvalue = [17, 7]"] ;
736 -> 737 ;
738 [label="gini = 0.0\nsamples = 4\nvalue = [0, 4]"] ;
737 -> 738 ;
739 [label="X[141] <= 0.342\ngini = 0.255\nsamples = 20\nvalue = [17, 3]"] ;
737 -> 739 ;
740 [label="X[92] <= 0.54\ngini = 0.375\nsamples = 4\nvalue = [1, 3]"] ;
739 -> 740 ;
741 [label="gini = 0.0\nsamples = 3\nvalue = [0, 3]"] ;
740 -> 741 ;
742 [label="gini = 0.0\nsamples = 1\nvalue = [1, 0]"] ;
740 -> 742 ;
743 [label="gini = 0.0\nsamples = 16\nvalue = [16, 0]"] ;
739 -> 743 ;
744 [label="gini = 0.0\nsamples = 7\nvalue = [0, 7]"] ;
736 -> 744 ;
745 [label="X[179] <= 0.575\ngini = 0.497\nsamples = 37\nvalue = [20, 17]"] ;
693 -> 745 ;
746 [label="X[95] <= 0.649\ngini = 0.32\nsamples = 20\nvalue = [16, 4]"] ;
745 -> 746 ;
747 [label="gini = 0.0\nsamples = 15\nvalue = [15, 0]"] ;
746 -> 747 ;
748 [label="X[118] <= 0.585\ngini = 0.32\nsamples = 5\nvalue = [1, 4]"] ;
746 -> 748 ;
749 [label="gini = 0.0\nsamples = 4\nvalue = [0, 4]"] ;
748 -> 749 ;
750 [label="gini = 0.0\nsamples = 1\nvalue = [1, 0]"] ;
748 -> 750 ;
751 [label="X[118] <= 0.646\ngini = 0.36\nsamples = 17\nvalue = [4, 13]"] ;
745 -> 751 ;
752 [label="X[79] <= 0.342\ngini = 0.133\nsamples = 14\nvalue = [1, 13]"] ;
751 -> 752 ;
753 [label="gini = 0.0\nsamples = 1\nvalue = [1, 0]"] ;
752 -> 753 ;
754 [label="gini = 0.0\nsamples = 13\nvalue = [0, 13]"] ;
752 -> 754 ;
755 [label="gini = 0.0\nsamples = 3\nvalue = [3, 0]"] ;
751 -> 755 ;
756 [label="X[112] <= 0.39\ngini = 0.375\nsamples = 12\nvalue = [3, 9]"] ;
692 -> 756 ;
757 [label="gini = 0.0\nsamples = 3\nvalue = [3, 0]"] ;
756 -> 757 ;
758 [label="gini = 0.0\nsamples = 9\nvalue = [0, 9]"] ;
756 -> 758 ;
759 [label="X[117] <= 0.569\ngini = 0.497\nsamples = 37\nvalue = [17, 20]"] ;
691 -> 759 ;
760 [label="X[163] <= 0.5\ngini = 0.444\nsamples = 24\nvalue = [16, 8]"] ;
759 -> 760 ;
761 [label="X[29] <= 0.4\ngini = 0.133\nsamples = 14\nvalue = [13, 1]"] ;
760 -> 761 ;
762 [label="gini = 0.0\nsamples = 1\nvalue = [0, 1]"] ;
761 -> 762 ;
763 [label="gini = 0.0\nsamples = 13\nvalue = [13, 0]"] ;
761 -> 763 ;
764 [label="X[36] <= 0.59\ngini = 0.42\nsamples = 10\nvalue = [3, 7]"] ;
760 -> 764 ;
765 [label="gini = 0.0\nsamples = 7\nvalue = [0, 7]"] ;
764 -> 765 ;
766 [label="gini = 0.0\nsamples = 3\nvalue = [3, 0]"] ;
764 -> 766 ;
767 [label="X[191] <= 0.396\ngini = 0.142\nsamples = 13\nvalue = [1, 12]"] ;
759 -> 767 ;
768 [label="gini = 0.0\nsamples = 1\nvalue = [1, 0]"] ;
767 -> 768 ;
769 [label="gini = 0.0\nsamples = 12\nvalue = [0, 12]"] ;
767 -> 769 ;
770 [label="X[9] <= 0.455\ngini = 0.483\nsamples = 27\nvalue = [11, 16]"] ;
656 -> 770 ;
771 [label="X[158] <= 0.611\ngini = 0.32\nsamples = 10\nvalue = [8, 2]"] ;
770 -> 771 ;
772 [label="gini = 0.0\nsamples = 8\nvalue = [8, 0]"] ;
771 -> 772 ;
773 [label="gini = 0.0\nsamples = 2\nvalue = [0, 2]"] ;
771 -> 773 ;
774 [label="X[115] <= 0.624\ngini = 0.291\nsamples = 17\nvalue = [3, 14]"] ;
770 -> 774 ;
775 [label="gini = 0.0\nsamples = 14\nvalue = [0, 14]"] ;
774 -> 775 ;
776 [label="gini = 0.0\nsamples = 3\nvalue = [3, 0]"] ;
774 -> 776 ;
777 [label="X[78] <= 0.809\ngini = 0.179\nsamples = 7882\nvalue = [7100, 782]"] ;
655 -> 777 ;
778 [label="X[2] <= 0.762\ngini = 0.171\nsamples = 7650\nvalue = [6927, 723]"] ;
777 -> 778 ;
779 [label="X[164] <= 0.863\ngini = 0.162\nsamples = 7255\nvalue = [6611, 644]"] ;
778 -> 779 ;
780 [label="X[44] <= 0.157\ngini = 0.155\nsamples = 7083\nvalue = [6482, 601]"] ;
779 -> 780 ;
781 [label="X[188] <= 0.208\ngini = 0.33\nsamples = 283\nvalue = [224, 59]"] ;
780 -> 781 ;
782 [label="X[169] <= 0.43\ngini = 0.469\nsamples = 24\nvalue = [9, 15]"] ;
781 -> 782 ;
783 [label="gini = 0.0\nsamples = 11\nvalue = [0, 11]"] ;
782 -> 783 ;
784 [label="X[136] <= 0.507\ngini = 0.426\nsamples = 13\nvalue = [9, 4]"] ;
782 -> 784 ;
785 [label="gini = 0.0\nsamples = 8\nvalue = [8, 0]"] ;
784 -> 785 ;
786 [label="X[124] <= 0.283\ngini = 0.32\nsamples = 5\nvalue = [1, 4]"] ;
784 -> 786 ;
787 [label="gini = 0.0\nsamples = 1\nvalue = [1, 0]"] ;
786 -> 787 ;
788 [label="gini = 0.0\nsamples = 4\nvalue = [0, 4]"] ;
786 -> 788 ;
789 [label="X[108] <= 0.19\ngini = 0.282\nsamples = 259\nvalue = [215, 44]"] ;
781 -> 789 ;
790 [label="X[99] <= 0.422\ngini = 0.42\nsamples = 10\nvalue = [3, 7]"] ;
789 -> 790 ;
791 [label="gini = 0.0\nsamples = 3\nvalue = [3, 0]"] ;
790 -> 791 ;
792 [label="gini = 0.0\nsamples = 7\nvalue = [0, 7]"] ;
790 -> 792 ;
793 [label="X[13] <= 0.164\ngini = 0.253\nsamples = 249\nvalue = [212, 37]"] ;
789 -> 793 ;
794 [label="gini = 0.0\nsamples = 3\nvalue = [0, 3]"] ;
793 -> 794 ;
795 [label="X[136] <= 0.386\ngini = 0.238\nsamples = 246\nvalue = [212, 34]"] ;
793 -> 795 ;
796 [label="X[142] <= 0.544\ngini = 0.42\nsamples = 60\nvalue = [42, 18]"] ;
795 -> 796 ;
797 [label="X[110] <= 0.634\ngini = 0.273\nsamples = 43\nvalue = [36, 7]"] ;
796 -> 797 ;
798 [label="X[136] <= 0.373\ngini = 0.18\nsamples = 40\nvalue = [36, 4]"] ;
797 -> 798 ;
799 [label="X[33] <= 0.206\ngini = 0.1\nsamples = 38\nvalue = [36, 2]"] ;
798 -> 799 ;
800 [label="gini = 0.0\nsamples = 1\nvalue = [0, 1]"] ;
799 -> 800 ;
801 [label="X[151] <= 0.192\ngini = 0.053\nsamples = 37\nvalue = [36, 1]"] ;
799 -> 801 ;
802 [label="gini = 0.0\nsamples = 1\nvalue = [0, 1]"] ;
801 -> 802 ;
803 [label="gini = 0.0\nsamples = 36\nvalue = [36, 0]"] ;
801 -> 803 ;
804 [label="gini = 0.0\nsamples = 2\nvalue = [0, 2]"] ;
798 -> 804 ;
805 [label="gini = 0.0\nsamples = 3\nvalue = [0, 3]"] ;
797 -> 805 ;
806 [label="X[113] <= 0.676\ngini = 0.457\nsamples = 17\nvalue = [6, 11]"] ;
796 -> 806 ;
807 [label="X[49] <= 0.666\ngini = 0.26\nsamples = 13\nvalue = [2, 11]"] ;
806 -> 807 ;
808 [label="gini = 0.0\nsamples = 11\nvalue = [0, 11]"] ;
807 -> 808 ;
809 [label="gini = 0.0\nsamples = 2\nvalue = [2, 0]"] ;
807 -> 809 ;
810 [label="gini = 0.0\nsamples = 4\nvalue = [4, 0]"] ;
806 -> 810 ;
811 [label="X[41] <= 0.808\ngini = 0.157\nsamples = 186\nvalue = [170, 16]"] ;
795 -> 811 ;
812 [label="X[22] <= 0.791\ngini = 0.117\nsamples = 176\nvalue = [165, 11]"] ;
811 -> 812 ;
813 [label="X[46] <= 0.798\ngini = 0.089\nsamples = 172\nvalue = [164, 8]"] ;
812 -> 813 ;
814 [label="X[36] <= 0.812\ngini = 0.068\nsamples = 169\nvalue = [163, 6]"] ;
813 -> 814 ;
815 [label="X[131] <= 0.138\ngini = 0.058\nsamples = 168\nvalue = [163, 5]"] ;
814 -> 815 ;
816 [label="gini = 0.0\nsamples = 1\nvalue = [0, 1]"] ;
815 -> 816 ;
817 [label="X[196] <= 0.863\ngini = 0.047\nsamples = 167\nvalue = [163, 4]"] ;
815 -> 817 ;
818 [label="X[195] <= 0.23\ngini = 0.035\nsamples = 166\nvalue = [163, 3]"] ;
817 -> 818 ;
819 [label="gini = 0.0\nsamples = 1\nvalue = [0, 1]"] ;
818 -> 819 ;
820 [label="X[85] <= 0.091\ngini = 0.024\nsamples = 165\nvalue = [163, 2]"] ;
818 -> 820 ;
821 [label="gini = 0.0\nsamples = 1\nvalue = [0, 1]"] ;
820 -> 821 ;
822 [label="X[154] <= 0.104\ngini = 0.012\nsamples = 164\nvalue = [163, 1]"] ;
820 -> 822 ;
823 [label="gini = 0.0\nsamples = 1\nvalue = [0, 1]"] ;
822 -> 823 ;
824 [label="gini = 0.0\nsamples = 163\nvalue = [163, 0]"] ;
822 -> 824 ;
825 [label="gini = 0.0\nsamples = 1\nvalue = [0, 1]"] ;
817 -> 825 ;
826 [label="gini = 0.0\nsamples = 1\nvalue = [0, 1]"] ;
814 -> 826 ;
827 [label="X[172] <= 0.398\ngini = 0.444\nsamples = 3\nvalue = [1, 2]"] ;
813 -> 827 ;
828 [label="gini = 0.0\nsamples = 1\nvalue = [1, 0]"] ;
827 -> 828 ;
829 [label="gini = 0.0\nsamples = 2\nvalue = [0, 2]"] ;
827 -> 829 ;
830 [label="X[174] <= 0.61\ngini = 0.375\nsamples = 4\nvalue = [1, 3]"] ;
812 -> 830 ;
831 [label="gini = 0.0\nsamples = 3\nvalue = [0, 3]"] ;
830 -> 831 ;
832 [label="gini = 0.0\nsamples = 1\nvalue = [1, 0]"] ;
830 -> 832 ;
833 [label="X[14] <= 0.515\ngini = 0.5\nsamples = 10\nvalue = [5, 5]"] ;
811 -> 833 ;
834 [label="gini = 0.0\nsamples = 5\nvalue = [0, 5]"] ;
833 -> 834 ;
835 [label="gini = 0.0\nsamples = 5\nvalue = [5, 0]"] ;
833 -> 835 ;
836 [label="X[0] <= 0.76\ngini = 0.147\nsamples = 6800\nvalue = [6258, 542]"] ;
780 -> 836 ;
837 [label="X[121] <= 0.188\ngini = 0.136\nsamples = 6371\nvalue = [5903, 468]"] ;
836 -> 837 ;
838 [label="X[40] <= 0.83\ngini = 0.32\nsamples = 205\nvalue = [164, 41]"] ;
837 -> 838 ;
839 [label="X[135] <= 0.698\ngini = 0.291\nsamples = 198\nvalue = [163, 35]"] ;
838 -> 839 ;
840 [label="X[54] <= 0.752\ngini = 0.236\nsamples = 176\nvalue = [152, 24]"] ;
839 -> 840 ;
841 [label="X[89] <= 0.826\ngini = 0.208\nsamples = 170\nvalue = [150, 20]"] ;
840 -> 841 ;
842 [label="X[43] <= 0.208\ngini = 0.176\nsamples = 164\nvalue = [148, 16]"] ;
841 -> 842 ;
843 [label="X[63] <= 0.516\ngini = 0.444\nsamples = 6\nvalue = [2, 4]"] ;
842 -> 843 ;
844 [label="gini = 0.0\nsamples = 2\nvalue = [2, 0]"] ;
843 -> 844 ;
845 [label="gini = 0.0\nsamples = 4\nvalue = [0, 4]"] ;
843 -> 845 ;
846 [label="X[197] <= 0.19\ngini = 0.14\nsamples = 158\nvalue = [146, 12]"] ;
842 -> 846 ;
847 [label="X[144] <= 0.587\ngini = 0.375\nsamples = 4\nvalue = [1, 3]"] ;
846 -> 847 ;
848 [label="gini = 0.0\nsamples = 3\nvalue = [0, 3]"] ;
847 -> 848 ;
849 [label="gini = 0.0\nsamples = 1\nvalue = [1, 0]"] ;
847 -> 849 ;
850 [label="X[106] <= 0.787\ngini = 0.11\nsamples = 154\nvalue = [145, 9]"] ;
846 -> 850 ;
851 [label="X[35] <= 0.238\ngini = 0.078\nsamples = 148\nvalue = [142, 6]"] ;
850 -> 851 ;
852 [label="X[87] <= 0.419\ngini = 0.444\nsamples = 3\nvalue = [1, 2]"] ;
851 -> 852 ;
853 [label="gini = 0.0\nsamples = 1\nvalue = [1, 0]"] ;
852 -> 853 ;
854 [label="gini = 0.0\nsamples = 2\nvalue = [0, 2]"] ;
852 -> 854 ;
855 [label="X[4] <= 0.86\ngini = 0.054\nsamples = 145\nvalue = [141, 4]"] ;
851 -> 855 ;
856 [label="X[18] <= 0.84\ngini = 0.041\nsamples = 144\nvalue = [141, 3]"] ;
855 -> 856 ;
857 [label="X[145] <= 0.914\ngini = 0.028\nsamples = 143\nvalue = [141, 2]"] ;
856 -> 857 ;
858 [label="X[62] <= 0.878\ngini = 0.014\nsamples = 142\nvalue = [141, 1]"] ;
857 -> 858 ;
859 [label="gini = 0.0\nsamples = 141\nvalue = [141, 0]"] ;
858 -> 859 ;
860 [label="gini = 0.0\nsamples = 1\nvalue = [0, 1]"] ;
858 -> 860 ;
861 [label="gini = 0.0\nsamples = 1\nvalue = [0, 1]"] ;
857 -> 861 ;
862 [label="gini = 0.0\nsamples = 1\nvalue = [0, 1]"] ;
856 -> 862 ;
863 [label="gini = 0.0\nsamples = 1\nvalue = [0, 1]"] ;
855 -> 863 ;
864 [label="X[33] <= 0.363\ngini = 0.5\nsamples = 6\nvalue = [3, 3]"] ;
850 -> 864 ;
865 [label="gini = 0.0\nsamples = 3\nvalue = [0, 3]"] ;
864 -> 865 ;
866 [label="gini = 0.0\nsamples = 3\nvalue = [3, 0]"] ;
864 -> 866 ;
867 [label="X[9] <= 0.581\ngini = 0.444\nsamples = 6\nvalue = [2, 4]"] ;
841 -> 867 ;
868 [label="gini = 0.0\nsamples = 4\nvalue = [0, 4]"] ;
867 -> 868 ;
869 [label="gini = 0.0\nsamples = 2\nvalue = [2, 0]"] ;
867 -> 869 ;
870 [label="X[163] <= 0.502\ngini = 0.444\nsamples = 6\nvalue = [2, 4]"] ;
840 -> 870 ;
871 [label="gini = 0.0\nsamples = 2\nvalue = [2, 0]"] ;
870 -> 871 ;
872 [label="gini = 0.0\nsamples = 4\nvalue = [0, 4]"] ;
870 -> 872 ;
873 [label="X[173] <= 0.5\ngini = 0.5\nsamples = 22\nvalue = [11, 11]"] ;
839 -> 873 ;
874 [label="gini = 0.0\nsamples = 8\nvalue = [8, 0]"] ;
873 -> 874 ;
875 [label="X[99] <= 0.344\ngini = 0.337\nsamples = 14\nvalue = [3, 11]"] ;
873 -> 875 ;
876 [label="gini = 0.0\nsamples = 3\nvalue = [3, 0]"] ;
875 -> 876 ;
877 [label="gini = 0.0\nsamples = 11\nvalue = [0, 11]"] ;
875 -> 877 ;
878 [label="X[187] <= 0.327\ngini = 0.245\nsamples = 7\nvalue = [1, 6]"] ;
838 -> 878 ;
879 [label="gini = 0.0\nsamples = 1\nvalue = [1, 0]"] ;
878 -> 879 ;
880 [label="gini = 0.0\nsamples = 6\nvalue = [0, 6]"] ;
878 -> 880 ;
881 [label="X[109] <= 0.179\ngini = 0.129\nsamples = 6166\nvalue = [5739, 427]"] ;
837 -> 881 ;
882 [label="X[93] <= 0.206\ngini = 0.33\nsamples = 168\nvalue = [133, 35]"] ;
881 -> 882 ;
883 [label="gini = 0.0\nsamples = 5\nvalue = [0, 5]"] ;
882 -> 883 ;
884 [label="X[26] <= 0.666\ngini = 0.3\nsamples = 163\nvalue = [133, 30]"] ;
882 -> 884 ;
885 [label="X[27] <= 0.697\ngini = 0.252\nsamples = 149\nvalue = [127, 22]"] ;
884 -> 885 ;
886 [label="X[154] <= 0.792\ngini = 0.172\nsamples = 126\nvalue = [114, 12]"] ;
885 -> 886 ;
887 [label="X[87] <= 0.775\ngini = 0.136\nsamples = 123\nvalue = [114, 9]"] ;
886 -> 887 ;
888 [label="X[191] <= 0.798\ngini = 0.109\nsamples = 121\nvalue = [114, 7]"] ;
887 -> 888 ;
889 [label="X[46] <= 0.806\ngini = 0.067\nsamples = 115\nvalue = [111, 4]"] ;
888 -> 889 ;
890 [label="X[131] <= 0.166\ngini = 0.035\nsamples = 112\nvalue = [110, 2]"] ;
889 -> 890 ;
891 [label="gini = 0.0\nsamples = 1\nvalue = [0, 1]"] ;
890 -> 891 ;
892 [label="X[4] <= 0.806\ngini = 0.018\nsamples = 111\nvalue = [110, 1]"] ;
890 -> 892 ;
893 [label="gini = 0.0\nsamples = 110\nvalue = [110, 0]"] ;
892 -> 893 ;
894 [label="gini = 0.0\nsamples = 1\nvalue = [0, 1]"] ;
892 -> 894 ;
895 [label="X[104] <= 0.572\ngini = 0.444\nsamples = 3\nvalue = [1, 2]"] ;
889 -> 895 ;
896 [label="gini = 0.0\nsamples = 2\nvalue = [0, 2]"] ;
895 -> 896 ;
897 [label="gini = 0.0\nsamples = 1\nvalue = [1, 0]"] ;
895 -> 897 ;
898 [label="X[134] <= 0.467\ngini = 0.5\nsamples = 6\nvalue = [3, 3]"] ;
888 -> 898 ;
899 [label="gini = 0.0\nsamples = 3\nvalue = [3, 0]"] ;
898 -> 899 ;
900 [label="gini = 0.0\nsamples = 3\nvalue = [0, 3]"] ;
898 -> 900 ;
901 [label="gini = 0.0\nsamples = 2\nvalue = [0, 2]"] ;
887 -> 901 ;
902 [label="gini = 0.0\nsamples = 3\nvalue = [0, 3]"] ;
886 -> 902 ;
903 [label="X[64] <= 0.535\ngini = 0.491\nsamples = 23\nvalue = [13, 10]"] ;
885 -> 903 ;
904 [label="X[189] <= 0.331\ngini = 0.278\nsamples = 12\nvalue = [2, 10]"] ;
903 -> 904 ;
905 [label="gini = 0.0\nsamples = 2\nvalue = [2, 0]"] ;
904 -> 905 ;
906 [label="gini = 0.0\nsamples = 10\nvalue = [0, 10]"] ;
904 -> 906 ;
907 [label="gini = 0.0\nsamples = 11\nvalue = [11, 0]"] ;
903 -> 907 ;
908 [label="X[136] <= 0.406\ngini = 0.49\nsamples = 14\nvalue = [6, 8]"] ;
884 -> 908 ;
909 [label="gini = 0.0\nsamples = 6\nvalue = [0, 6]"] ;
908 -> 909 ;
910 [label="X[37] <= 0.689\ngini = 0.375\nsamples = 8\nvalue = [6, 2]"] ;
908 -> 910 ;
911 [label="gini = 0.0\nsamples = 6\nvalue = [6, 0]"] ;
910 -> 911 ;
912 [label="gini = 0.0\nsamples = 2\nvalue = [0, 2]"] ;
910 -> 912 ;
913 [label="X[99] <= 0.798\ngini = 0.122\nsamples = 5998\nvalue = [5606, 392]"] ;
881 -> 913 ;
914 [label="X[92] <= 0.257\ngini = 0.115\nsamples = 5741\nvalue = [5390, 351]"] ;
913 -> 914 ;
915 [label="X[56] <= 0.268\ngini = 0.244\nsamples = 323\nvalue = [277, 46]"] ;
914 -> 915 ;
916 [label="X[121] <= 0.677\ngini = 0.245\nsamples = 7\nvalue = [1, 6]"] ;
915 -> 916 ;
917 [label="gini = 0.0\nsamples = 6\nvalue = [0, 6]"] ;
916 -> 917 ;
918 [label="gini = 0.0\nsamples = 1\nvalue = [1, 0]"] ;
916 -> 918 ;
919 [label="X[76] <= 0.214\ngini = 0.221\nsamples = 316\nvalue = [276, 40]"] ;
915 -> 919 ;
920 [label="X[114] <= 0.526\ngini = 0.463\nsamples = 11\nvalue = [4, 7]"] ;
919 -> 920 ;
921 [label="gini = 0.0\nsamples = 7\nvalue = [0, 7]"] ;
920 -> 921 ;
922 [label="gini = 0.0\nsamples = 4\nvalue = [4, 0]"] ;
920 -> 922 ;
923 [label="X[187] <= 0.746\ngini = 0.193\nsamples = 305\nvalue = [272, 33]"] ;
919 -> 923 ;
924 [label="X[190] <= 0.785\ngini = 0.149\nsamples = 272\nvalue = [250, 22]"] ;
923 -> 924 ;
925 [label="X[15] <= 0.88\ngini = 0.126\nsamples = 266\nvalue = [248, 18]"] ;
924 -> 925 ;
926 [label="X[170] <= 0.733\ngini = 0.114\nsamples = 264\nvalue = [248, 16]"] ;
925 -> 926 ;
927 [label="X[111] <= 0.868\ngini = 0.095\nsamples = 259\nvalue = [246, 13]"] ;
926 -> 927 ;
928 [label="X[93] <= 0.245\ngini = 0.076\nsamples = 253\nvalue = [243, 10]"] ;
927 -> 928 ;
929 [label="X[26] <= 0.457\ngini = 0.49\nsamples = 7\nvalue = [4, 3]"] ;
928 -> 929 ;
930 [label="gini = 0.0\nsamples = 4\nvalue = [4, 0]"] ;
929 -> 930 ;
931 [label="gini = 0.0\nsamples = 3\nvalue = [0, 3]"] ;
929 -> 931 ;
932 [label="X[118] <= 0.815\ngini = 0.055\nsamples = 246\nvalue = [239, 7]"] ;
928 -> 932 ;
933 [label="X[19] <= 0.933\ngini = 0.048\nsamples = 245\nvalue = [239, 6]"] ;
932 -> 933 ;
934 [label="X[87] <= 0.813\ngini = 0.04\nsamples = 244\nvalue = [239, 5]"] ;
933 -> 934 ;
935 [label="X[85] <= 0.819\ngini = 0.032\nsamples = 243\nvalue = [239, 4]"] ;
934 -> 935 ;
936 [label="X[190] <= 0.266\ngini = 0.024\nsamples = 242\nvalue = [239, 3]"] ;
935 -> 936 ;
937 [label="X[63] <= 0.575\ngini = 0.5\nsamples = 2\nvalue = [1, 1]"] ;
936 -> 937 ;
938 [label="gini = 0.0\nsamples = 1\nvalue = [1, 0]"] ;
937 -> 938 ;
939 [label="gini = 0.0\nsamples = 1\nvalue = [0, 1]"] ;
937 -> 939 ;
940 [label="X[119] <= 0.158\ngini = 0.017\nsamples = 240\nvalue = [238, 2]"] ;
936 -> 940 ;
941 [label="X[172] <= 0.386\ngini = 0.5\nsamples = 2\nvalue = [1, 1]"] ;
940 -> 941 ;
942 [label="gini = 0.0\nsamples = 1\nvalue = [0, 1]"] ;
941 -> 942 ;
943 [label="gini = 0.0\nsamples = 1\nvalue = [1, 0]"] ;
941 -> 943 ;
944 [label="X[178] <= 0.146\ngini = 0.008\nsamples = 238\nvalue = [237, 1]"] ;
940 -> 944 ;
945 [label="X[113] <= 0.681\ngini = 0.444\nsamples = 3\nvalue = [2, 1]"] ;
944 -> 945 ;
946 [label="gini = 0.0\nsamples = 2\nvalue = [2, 0]"] ;
945 -> 946 ;
947 [label="gini = 0.0\nsamples = 1\nvalue = [0, 1]"] ;
945 -> 947 ;
948 [label="gini = 0.0\nsamples = 235\nvalue = [235, 0]"] ;
944 -> 948 ;
949 [label="gini = 0.0\nsamples = 1\nvalue = [0, 1]"] ;
935 -> 949 ;
950 [label="gini = 0.0\nsamples = 1\nvalue = [0, 1]"] ;
934 -> 950 ;
951 [label="gini = 0.0\nsamples = 1\nvalue = [0, 1]"] ;
933 -> 951 ;
952 [label="gini = 0.0\nsamples = 1\nvalue = [0, 1]"] ;
932 -> 952 ;
953 [label="X[128] <= 0.639\ngini = 0.5\nsamples = 6\nvalue = [3, 3]"] ;
927 -> 953 ;
954 [label="gini = 0.0\nsamples = 3\nvalue = [3, 0]"] ;
953 -> 954 ;
955 [label="gini = 0.0\nsamples = 3\nvalue = [0, 3]"] ;
953 -> 955 ;
956 [label="X[84] <= 0.441\ngini = 0.48\nsamples = 5\nvalue = [2, 3]"] ;
926 -> 956 ;
957 [label="gini = 0.0\nsamples = 2\nvalue = [2, 0]"] ;
956 -> 957 ;
958 [label="gini = 0.0\nsamples = 3\nvalue = [0, 3]"] ;
956 -> 958 ;
959 [label="gini = 0.0\nsamples = 2\nvalue = [0, 2]"] ;
925 -> 959 ;
960 [label="X[123] <= 0.566\ngini = 0.444\nsamples = 6\nvalue = [2, 4]"] ;
924 -> 960 ;
961 [label="gini = 0.0\nsamples = 4\nvalue = [0, 4]"] ;
960 -> 961 ;
962 [label="gini = 0.0\nsamples = 2\nvalue = [2, 0]"] ;
960 -> 962 ;
963 [label="X[180] <= 0.629\ngini = 0.444\nsamples = 33\nvalue = [22, 11]"] ;
923 -> 963 ;
964 [label="X[81] <= 0.234\ngini = 0.278\nsamples = 24\nvalue = [20, 4]"] ;
963 -> 964 ;
965 [label="X[56] <= 0.813\ngini = 0.091\nsamples = 21\nvalue = [20, 1]"] ;
964 -> 965 ;
966 [label="gini = 0.0\nsamples = 20\nvalue = [20, 0]"] ;
965 -> 966 ;
967 [label="gini = 0.0\nsamples = 1\nvalue = [0, 1]"] ;
965 -> 967 ;
968 [label="gini = 0.0\nsamples = 3\nvalue = [0, 3]"] ;
964 -> 968 ;
969 [label="X[112] <= 0.717\ngini = 0.346\nsamples = 9\nvalue = [2, 7]"] ;
963 -> 969 ;
970 [label="gini = 0.0\nsamples = 7\nvalue = [0, 7]"] ;
969 -> 970 ;
971 [label="gini = 0.0\nsamples = 2\nvalue = [2, 0]"] ;
969 -> 971 ;
972 [label="X[197] <= 0.094\ngini = 0.106\nsamples = 5418\nvalue = [5113, 305]"] ;
914 -> 972 ;
973 [label="X[121] <= 0.457\ngini = 0.5\nsamples = 10\nvalue = [5, 5]"] ;
972 -> 973 ;
974 [label="gini = 0.0\nsamples = 5\nvalue = [0, 5]"] ;
973 -> 974 ;
975 [label="gini = 0.0\nsamples = 5\nvalue = [5, 0]"] ;
973 -> 975 ;
976 [label="X[190] <= 0.811\ngini = 0.105\nsamples = 5408\nvalue = [5108, 300]"] ;
972 -> 976 ;
977 [label="X[184] <= 0.819\ngini = 0.1\nsamples = 5290\nvalue = [5011, 279]"] ;
976 -> 977 ;
978 [label="X[25] <= 0.724\ngini = 0.096\nsamples = 5219\nvalue = [4954, 265]"] ;
977 -> 978 ;
979 [label="X[138] <= 0.826\ngini = 0.088\nsamples = 4858\nvalue = [4635, 223]"] ;
978 -> 979 ;
980 [label="X[155] <= 0.738\ngini = 0.086\nsamples = 4846\nvalue = [4628, 218]"] ;
979 -> 980 ;
981 [label="X[147] <= 0.879\ngini = 0.078\nsamples = 4520\nvalue = [4337, 183]"] ;
980 -> 981 ;
982 [label="X[15] <= 0.892\ngini = 0.076\nsamples = 4507\nvalue = [4329, 178]"] ;
981 -> 982 ;
983 [label="X[32] <= 0.908\ngini = 0.075\nsamples = 4501\nvalue = [4326, 175]"] ;
982 -> 983 ;
984 [label="X[41] <= 0.95\ngini = 0.073\nsamples = 4479\nvalue = [4310, 169]"] ;
983 -> 984 ;
985 [label="X[59] <= 0.096\ngini = 0.071\nsamples = 4472\nvalue = [4306, 166]"] ;
984 -> 985 ;
986 [label="gini = 0.0\nsamples = 1\nvalue = [0, 1]"] ;
985 -> 986 ;
987 [label="X[83] <= 0.971\ngini = 0.071\nsamples = 4471\nvalue = [4306, 165]"] ;
985 -> 987 ;
988 [label="X[71] <= 0.885\ngini = 0.071\nsamples = 4470\nvalue = [4306, 164]"] ;
987 -> 988 ;
989 [label="X[24] <= 0.82\ngini = 0.07\nsamples = 4469\nvalue = [4306, 163]"] ;
988 -> 989 ;
990 [label="X[130] <= 0.937\ngini = 0.07\nsamples = 4468\nvalue = [4306, 162]"] ;
989 -> 990 ;
991 [label="X[157] <= 0.945\ngini = 0.069\nsamples = 4467\nvalue = [4306, 161]"] ;
990 -> 991 ;
992 [label="X[135] <= 0.788\ngini = 0.069\nsamples = 4466\nvalue = [4306, 160]"] ;
991 -> 992 ;
993 [label="X[7] <= 0.908\ngini = 0.065\nsamples = 4339\nvalue = [4194, 145]"] ;
992 -> 993 ;
994 [label="X[123] <= 0.164\ngini = 0.064\nsamples = 4335\nvalue = [4192, 143]"] ;
993 -> 994 ;
995 [label="X[34] <= 0.198\ngini = 0.225\nsamples = 85\nvalue = [74, 11]"] ;
994 -> 995 ;
996 [label="X[166] <= 0.36\ngini = 0.408\nsamples = 7\nvalue = [2, 5]"] ;
995 -> 996 ;
997 [label="gini = 0.0\nsamples = 2\nvalue = [2, 0]"] ;
996 -> 997 ;
998 [label="gini = 0.0\nsamples = 5\nvalue = [0, 5]"] ;
996 -> 998 ;
999 [label="X[107] <= 0.191\ngini = 0.142\nsamples = 78\nvalue = [72, 6]"] ;
995 -> 999 ;
1000 [label="gini = 0.0\nsamples = 3\nvalue = [0, 3]"] ;
999 -> 1000 ;
1001 [label="X[23] <= 0.193\ngini = 0.077\nsamples = 75\nvalue = [72, 3]"] ;
999 -> 1001 ;
1002 [label="gini = 0.0\nsamples = 2\nvalue = [0, 2]"] ;
1001 -> 1002 ;
1003 [label="X[142] <= 0.137\ngini = 0.027\nsamples = 73\nvalue = [72, 1]"] ;
1001 -> 1003 ;
1004 [label="gini = 0.0\nsamples = 1\nvalue = [0, 1]"] ;
1003 -> 1004 ;
1005 [label="gini = 0.0\nsamples = 72\nvalue = [72, 0]"] ;
1003 -> 1005 ;
1006 [label="X[21] <= 0.184\ngini = 0.06\nsamples = 4250\nvalue = [4118, 132]"] ;
994 -> 1006 ;
1007 [label="X[17] <= 0.753\ngini = 0.205\nsamples = 95\nvalue = [84, 11]"] ;
1006 -> 1007 ;
1008 [label="X[124] <= 0.644\ngini = 0.143\nsamples = 90\nvalue = [83, 7]"] ;
1007 -> 1008 ;
1009 [label="X[40] <= 0.884\ngini = 0.027\nsamples = 73\nvalue = [72, 1]"] ;
1008 -> 1009 ;
1010 [label="gini = 0.0\nsamples = 72\nvalue = [72, 0]"] ;
1009 -> 1010 ;
1011 [label="gini = 0.0\nsamples = 1\nvalue = [0, 1]"] ;
1009 -> 1011 ;
1012 [label="X[100] <= 0.544\ngini = 0.457\nsamples = 17\nvalue = [11, 6]"] ;
1008 -> 1012 ;
1013 [label="X[142] <= 0.714\ngini = 0.165\nsamples = 11\nvalue = [10, 1]"] ;
1012 -> 1013 ;
1014 [label="gini = 0.0\nsamples = 10\nvalue = [10, 0]"] ;
1013 -> 1014 ;
1015 [label="gini = 0.0\nsamples = 1\nvalue = [0, 1]"] ;
1013 -> 1015 ;
1016 [label="X[198] <= 0.575\ngini = 0.278\nsamples = 6\nvalue = [1, 5]"] ;
1012 -> 1016 ;
1017 [label="gini = 0.0\nsamples = 5\nvalue = [0, 5]"] ;
1016 -> 1017 ;
1018 [label="gini = 0.0\nsamples = 1\nvalue = [1, 0]"] ;
1016 -> 1018 ;
1019 [label="X[185] <= 0.628\ngini = 0.32\nsamples = 5\nvalue = [1, 4]"] ;
1007 -> 1019 ;
1020 [label="gini = 0.0\nsamples = 4\nvalue = [0, 4]"] ;
1019 -> 1020 ;
1021 [label="gini = 0.0\nsamples = 1\nvalue = [1, 0]"] ;
1019 -> 1021 ;
1022 [label="X[55] <= 0.946\ngini = 0.057\nsamples = 4155\nvalue = [4034, 121]"] ;
1006 -> 1022 ;
1023 [label="X[5] <= 0.842\ngini = 0.056\nsamples = 4150\nvalue = [4031, 119]"] ;
1022 -> 1023 ;
1024 [label="X[85] <= 0.057\ngini = 0.052\nsamples = 4027\nvalue = [3920, 107]"] ;
1023 -> 1024 ;
1025 [label="gini = 0.0\nsamples = 1\nvalue = [0, 1]"] ;
1024 -> 1025 ;
1026 [label="X[183] <= 0.892\ngini = 0.051\nsamples = 4026\nvalue = [3920, 106]"] ;
1024 -> 1026 ;
1027 [label="X[49] <= 0.817\ngini = 0.051\nsamples = 4025\nvalue = [3920, 105]"] ;
1026 -> 1027 ;
1028 [label="X[119] <= 0.883\ngini = 0.047\nsamples = 3932\nvalue = [3837, 95]"] ;
1027 -> 1028 ;
1029 [label="X[55] <= 0.112\ngini = 0.045\nsamples = 3892\nvalue = [3803, 89]"] ;
1028 -> 1029 ;
1030 [label="X[41] <= 0.534\ngini = 0.444\nsamples = 6\nvalue = [4, 2]"] ;
1029 -> 1030 ;
1031 [label="gini = 0.0\nsamples = 4\nvalue = [4, 0]"] ;
1030 -> 1031 ;
1032 [label="gini = 0.0\nsamples = 2\nvalue = [0, 2]"] ;
1030 -> 1032 ;
1033 [label="X[58] <= 0.807\ngini = 0.044\nsamples = 3886\nvalue = [3799, 87]"] ;
1029 -> 1033 ;
1034 [label="X[117] <= 0.762\ngini = 0.043\nsamples = 3879\nvalue = [3794, 85]"] ;
1033 -> 1034 ;
1035 [label="X[173] <= 0.219\ngini = 0.04\nsamples = 3797\nvalue = [3720, 77]"] ;
1034 -> 1035 ;
1036 [label="X[95] <= 0.736\ngini = 0.229\nsamples = 38\nvalue = [33, 5]"] ;
1035 -> 1036 ;
1037 [label="X[164] <= 0.767\ngini = 0.061\nsamples = 32\nvalue = [31, 1]"] ;
1036 -> 1037 ;
1038 [label="gini = 0.0\nsamples = 31\nvalue = [31, 0]"] ;
1037 -> 1038 ;
1039 [label="gini = 0.0\nsamples = 1\nvalue = [0, 1]"] ;
1037 -> 1039 ;
1040 [label="X[132] <= 0.438\ngini = 0.444\nsamples = 6\nvalue = [2, 4]"] ;
1036 -> 1040 ;
1041 [label="gini = 0.0\nsamples = 2\nvalue = [2, 0]"] ;
1040 -> 1041 ;
1042 [label="gini = 0.0\nsamples = 4\nvalue = [0, 4]"] ;
1040 -> 1042 ;
1043 [label="X[94] <= 0.751\ngini = 0.038\nsamples = 3759\nvalue = [3687, 72]"] ;
1035 -> 1043 ;
1044 [label="X[83] <= 0.095\ngini = 0.032\nsamples = 3489\nvalue = [3433, 56]"] ;
1043 -> 1044 ;
1045 [label="X[22] <= 0.504\ngini = 0.444\nsamples = 6\nvalue = [4, 2]"] ;
1044 -> 1045 ;
1046 [label="gini = 0.0\nsamples = 2\nvalue = [0, 2]"] ;
1045 -> 1046 ;
1047 [label="gini = 0.0\nsamples = 4\nvalue = [4, 0]"] ;
1045 -> 1047 ;
1048 [label="X[11] <= 0.853\ngini = 0.031\nsamples = 3483\nvalue = [3429, 54]"] ;
1044 -> 1048 ;
1049 [label="X[160] <= 0.931\ngini = 0.029\nsamples = 3457\nvalue = [3407, 50]"] ;
1048 -> 1049 ;
1050 [label="X[145] <= 0.936\ngini = 0.028\nsamples = 3455\nvalue = [3406, 49]"] ;
1049 -> 1050 ;
1051 [label="X[89] <= 0.144\ngini = 0.027\nsamples = 3453\nvalue = [3405, 48]"] ;
1050 -> 1051 ;
1052 [label="X[23] <= 0.598\ngini = 0.5\nsamples = 2\nvalue = [1, 1]"] ;
1051 -> 1052 ;
1053 [label="gini = 0.0\nsamples = 1\nvalue = [0, 1]"] ;
1052 -> 1053 ;
1054 [label="gini = 0.0\nsamples = 1\nvalue = [1, 0]"] ;
1052 -> 1054 ;
1055 [label="X[112] <= 0.073\ngini = 0.027\nsamples = 3451\nvalue = [3404, 47]"] ;
1051 -> 1055 ;
1056 [label="X[8] <= 0.616\ngini = 0.5\nsamples = 2\nvalue = [1, 1]"] ;
1055 -> 1056 ;
1057 [label="gini = 0.0\nsamples = 1\nvalue = [0, 1]"] ;
1056 -> 1057 ;
1058 [label="gini = 0.0\nsamples = 1\nvalue = [1, 0]"] ;
1056 -> 1058 ;
1059 [label="X[171] <= 0.857\ngini = 0.026\nsamples = 3449\nvalue = [3403, 46]"] ;
1055 -> 1059 ;
1060 [label="X[18] <= 0.772\ngini = 0.025\nsamples = 3439\nvalue = [3395, 44]"] ;
1059 -> 1060 ;
1061 [label="X[176] <= 0.886\ngini = 0.022\nsamples = 3337\nvalue = [3300, 37]"] ;
1060 -> 1061 ;
1062 [label="X[51] <= 0.876\ngini = 0.021\nsamples = 3335\nvalue = [3299, 36]"] ;
1061 -> 1062 ;
1063 [label="X[30] <= 0.904\ngini = 0.02\nsamples = 3324\nvalue = [3290, 34]"] ;
1062 -> 1063 ;
1064 [label="X[130] <= 0.906\ngini = 0.02\nsamples = 3321\nvalue = [3288, 33]"] ;
1063 -> 1064 ;
1065 [label="X[50] <= 0.137\ngini = 0.019\nsamples = 3318\nvalue = [3286, 32]"] ;
1064 -> 1065 ;
1066 [label="X[1] <= 0.722\ngini = 0.444\nsamples = 3\nvalue = [2, 1]"] ;
1065 -> 1066 ;
1067 [label="gini = 0.0\nsamples = 2\nvalue = [2, 0]"] ;
1066 -> 1067 ;
1068 [label="gini = 0.0\nsamples = 1\nvalue = [0, 1]"] ;
1066 -> 1068 ;
1069 [label="X[113] <= 0.786\ngini = 0.019\nsamples = 3315\nvalue = [3284, 31]"] ;
1065 -> 1069 ;
1070 [label="X[136] <= 0.098\ngini = 0.015\nsamples = 3214\nvalue = [3189, 25]"] ;
1069 -> 1070 ;
1071 [label="X[134] <= 0.587\ngini = 0.375\nsamples = 4\nvalue = [3, 1]"] ;
1070 -> 1071 ;
1072 [label="gini = 0.0\nsamples = 3\nvalue = [3, 0]"] ;
1071 -> 1072 ;
1073 [label="gini = 0.0\nsamples = 1\nvalue = [0, 1]"] ;
1071 -> 1073 ;
1074 [label="X[33] <= 0.17\ngini = 0.015\nsamples = 3210\nvalue = [3186, 24]"] ;
1070 -> 1074 ;
1075 [label="X[137] <= 0.787\ngini = 0.121\nsamples = 62\nvalue = [58, 4]"] ;
1074 -> 1075 ;
1076 [label="X[122] <= 0.159\ngini = 0.034\nsamples = 57\nvalue = [56, 1]"] ;
1075 -> 1076 ;
1077 [label="gini = 0.0\nsamples = 1\nvalue = [0, 1]"] ;
1076 -> 1077 ;
1078 [label="gini = 0.0\nsamples = 56\nvalue = [56, 0]"] ;
1076 -> 1078 ;
1079 [label="X[190] <= 0.502\ngini = 0.48\nsamples = 5\nvalue = [2, 3]"] ;
1075 -> 1079 ;
1080 [label="gini = 0.0\nsamples = 2\nvalue = [2, 0]"] ;
1079 -> 1080 ;
1081 [label="gini = 0.0\nsamples = 3\nvalue = [0, 3]"] ;
1079 -> 1081 ;
1082 [label="X[10] <= 0.871\ngini = 0.013\nsamples = 3148\nvalue = [3128, 20]"] ;
1074 -> 1082 ;
1083 [label="X[89] <= 0.887\ngini = 0.012\nsamples = 3143\nvalue = [3124, 19]"] ;
1082 -> 1083 ;
1084 [label="X[37] <= 0.904\ngini = 0.011\nsamples = 3138\nvalue = [3120, 18]"] ;
1083 -> 1084 ;
1085 [label="X[126] <= 0.063\ngini = 0.01\nsamples = 3094\nvalue = [3079, 15]"] ;
1084 -> 1085 ;
1086 [label="X[7] <= 0.464\ngini = 0.32\nsamples = 5\nvalue = [4, 1]"] ;
1085 -> 1086 ;
1087 [label="gini = 0.0\nsamples = 1\nvalue = [0, 1]"] ;
1086 -> 1087 ;
1088 [label="gini = 0.0\nsamples = 4\nvalue = [4, 0]"] ;
1086 -> 1088 ;
1089 [label="X[180] <= 0.91\ngini = 0.009\nsamples = 3089\nvalue = [3075, 14]"] ;
1085 -> 1089 ;
1090 [label="X[142] <= 0.129\ngini = 0.008\nsamples = 3068\nvalue = [3056, 12]"] ;
1089 -> 1090 ;
1091 [label="X[81] <= 0.139\ngini = 0.278\nsamples = 6\nvalue = [5, 1]"] ;
1090 -> 1091 ;
1092 [label="gini = 0.0\nsamples = 1\nvalue = [0, 1]"] ;
1091 -> 1092 ;
1093 [label="gini = 0.0\nsamples = 5\nvalue = [5, 0]"] ;
1091 -> 1093 ;
1094 [label="X[80] <= 0.083\ngini = 0.007\nsamples = 3062\nvalue = [3051, 11]"] ;
1090 -> 1094 ;
1095 [label="X[15] <= 0.781\ngini = 0.32\nsamples = 5\nvalue = [4, 1]"] ;
1094 -> 1095 ;
1096 [label="gini = 0.0\nsamples = 4\nvalue = [4, 0]"] ;
1095 -> 1096 ;
1097 [label="gini = 0.0\nsamples = 1\nvalue = [0, 1]"] ;
1095 -> 1097 ;
1098 [label="X[112] <= 0.128\ngini = 0.007\nsamples = 3057\nvalue = [3047, 10]"] ;
1094 -> 1098 ;
1099 [label="X[9] <= 0.316\ngini = 0.278\nsamples = 6\nvalue = [5, 1]"] ;
1098 -> 1099 ;
1100 [label="gini = 0.0\nsamples = 1\nvalue = [0, 1]"] ;
1099 -> 1100 ;
1101 [label="gini = 0.0\nsamples = 5\nvalue = [5, 0]"] ;
1099 -> 1101 ;
1102 [label="X[149] <= 0.26\ngini = 0.006\nsamples = 3051\nvalue = [3042, 9]"] ;
1098 -> 1102 ;
1103 [label="X[146] <= 0.705\ngini = 0.153\nsamples = 24\nvalue = [22, 2]"] ;
1102 -> 1103 ;
1104 [label="gini = 0.0\nsamples = 22\nvalue = [22, 0]"] ;
1103 -> 1104 ;
1105 [label="gini = 0.0\nsamples = 2\nvalue = [0, 2]"] ;
1103 -> 1105 ;
1106 [label="X[147] <= 0.155\ngini = 0.005\nsamples = 3027\nvalue = [3020, 7]"] ;
1102 -> 1106 ;
1107 [label="X[184] <= 0.307\ngini = 0.245\nsamples = 7\nvalue = [6, 1]"] ;
1106 -> 1107 ;
1108 [label="gini = 0.0\nsamples = 1\nvalue = [0, 1]"] ;
1107 -> 1108 ;
1109 [label="gini = 0.0\nsamples = 6\nvalue = [6, 0]"] ;
1107 -> 1109 ;
1110 [label="X[154] <= 0.1\ngini = 0.004\nsamples = 3020\nvalue = [3014, 6]"] ;
1106 -> 1110 ;
1111 [label="X[88] <= 0.647\ngini = 0.219\nsamples = 8\nvalue = [7, 1]"] ;
1110 -> 1111 ;
1112 [label="gini = 0.0\nsamples = 7\nvalue = [7, 0]"] ;
1111 -> 1112 ;
1113 [label="gini = 0.0\nsamples = 1\nvalue = [0, 1]"] ;
1111 -> 1113 ;
1114 [label="X[22] <= 0.877\ngini = 0.003\nsamples = 3012\nvalue = [3007, 5]"] ;
1110 -> 1114 ;
1115 [label="X[56] <= 0.147\ngini = 0.003\nsamples = 3003\nvalue = [2999, 4]"] ;
1114 -> 1115 ;
1116 [label="X[16] <= 0.34\ngini = 0.18\nsamples = 10\nvalue = [9, 1]"] ;
1115 -> 1116 ;
1117 [label="gini = 0.0\nsamples = 1\nvalue = [0, 1]"] ;
1116 -> 1117 ;
1118 [label="gini = 0.0\nsamples = 9\nvalue = [9, 0]"] ;
1116 -> 1118 ;
1119 [label="X[194] <= 0.126\ngini = 0.002\nsamples = 2993\nvalue = [2990, 3]"] ;
1115 -> 1119 ;
1120 [label="X[123] <= 0.735\ngini = 0.142\nsamples = 13\nvalue = [12, 1]"] ;
1119 -> 1120 ;
1121 [label="gini = 0.0\nsamples = 12\nvalue = [12, 0]"] ;
1120 -> 1121 ;
1122 [label="gini = 0.0\nsamples = 1\nvalue = [0, 1]"] ;
1120 -> 1122 ;
1123 [label="X[181] <= 0.18\ngini = 0.001\nsamples = 2980\nvalue = [2978, 2]"] ;
1119 -> 1123 ;
1124 [label="X[38] <= 0.618\ngini = 0.133\nsamples = 14\nvalue = [13, 1]"] ;
1123 -> 1124 ;
1125 [label="gini = 0.0\nsamples = 13\nvalue = [13, 0]"] ;
1124 -> 1125 ;
1126 [label="gini = 0.0\nsamples = 1\nvalue = [0, 1]"] ;
1124 -> 1126 ;
1127 [label="X[144] <= 0.198\ngini = 0.001\nsamples = 2966\nvalue = [2965, 1]"] ;
1123 -> 1127 ;
1128 [label="X[50] <= 0.264\ngini = 0.056\nsamples = 35\nvalue = [34, 1]"] ;
1127 -> 1128 ;
1129 [label="gini = 0.0\nsamples = 1\nvalue = [0, 1]"] ;
1128 -> 1129 ;
1130 [label="gini = 0.0\nsamples = 34\nvalue = [34, 0]"] ;
1128 -> 1130 ;
1131 [label="gini = 0.0\nsamples = 2931\nvalue = [2931, 0]"] ;
1127 -> 1131 ;
1132 [label="X[44] <= 0.31\ngini = 0.198\nsamples = 9\nvalue = [8, 1]"] ;
1114 -> 1132 ;
1133 [label="gini = 0.0\nsamples = 1\nvalue = [0, 1]"] ;
1132 -> 1133 ;
1134 [label="gini = 0.0\nsamples = 8\nvalue = [8, 0]"] ;
1132 -> 1134 ;
1135 [label="X[172] <= 0.283\ngini = 0.172\nsamples = 21\nvalue = [19, 2]"] ;
1089 -> 1135 ;
1136 [label="gini = 0.0\nsamples = 2\nvalue = [0, 2]"] ;
1135 -> 1136 ;
1137 [label="gini = 0.0\nsamples = 19\nvalue = [19, 0]"] ;
1135 -> 1137 ;
1138 [label="X[87] <= 0.66\ngini = 0.127\nsamples = 44\nvalue = [41, 3]"] ;
1084 -> 1138 ;
1139 [label="X[24] <= 0.142\ngini = 0.048\nsamples = 41\nvalue = [40, 1]"] ;
1138 -> 1139 ;
1140 [label="gini = 0.0\nsamples = 1\nvalue = [0, 1]"] ;
1139 -> 1140 ;
1141 [label="gini = 0.0\nsamples = 40\nvalue = [40, 0]"] ;
1139 -> 1141 ;
1142 [label="X[133] <= 0.452\ngini = 0.444\nsamples = 3\nvalue = [1, 2]"] ;
1138 -> 1142 ;
1143 [label="gini = 0.0\nsamples = 1\nvalue = [1, 0]"] ;
1142 -> 1143 ;
1144 [label="gini = 0.0\nsamples = 2\nvalue = [0, 2]"] ;
1142 -> 1144 ;
1145 [label="X[155] <= 0.62\ngini = 0.32\nsamples = 5\nvalue = [4, 1]"] ;
1083 -> 1145 ;
1146 [label="gini = 0.0\nsamples = 4\nvalue = [4, 0]"] ;
1145 -> 1146 ;
1147 [label="gini = 0.0\nsamples = 1\nvalue = [0, 1]"] ;
1145 -> 1147 ;
1148 [label="X[170] <= 0.418\ngini = 0.32\nsamples = 5\nvalue = [4, 1]"] ;
1082 -> 1148 ;
1149 [label="gini = 0.0\nsamples = 4\nvalue = [4, 0]"] ;
1148 -> 1149 ;
1150 [label="gini = 0.0\nsamples = 1\nvalue = [0, 1]"] ;
1148 -> 1150 ;
1151 [label="X[36] <= 0.318\ngini = 0.112\nsamples = 101\nvalue = [95, 6]"] ;
1069 -> 1151 ;
1152 [label="X[91] <= 0.476\ngini = 0.444\nsamples = 15\nvalue = [10, 5]"] ;
1151 -> 1152 ;
1153 [label="gini = 0.0\nsamples = 9\nvalue = [9, 0]"] ;
1152 -> 1153 ;
1154 [label="X[125] <= 0.317\ngini = 0.278\nsamples = 6\nvalue = [1, 5]"] ;
1152 -> 1154 ;
1155 [label="gini = 0.0\nsamples = 1\nvalue = [1, 0]"] ;
1154 -> 1155 ;
1156 [label="gini = 0.0\nsamples = 5\nvalue = [0, 5]"] ;
1154 -> 1156 ;
1157 [label="X[194] <= 0.213\ngini = 0.023\nsamples = 86\nvalue = [85, 1]"] ;
1151 -> 1157 ;
1158 [label="gini = 0.0\nsamples = 1\nvalue = [0, 1]"] ;
1157 -> 1158 ;
1159 [label="gini = 0.0\nsamples = 85\nvalue = [85, 0]"] ;
1157 -> 1159 ;
1160 [label="X[58] <= 0.523\ngini = 0.444\nsamples = 3\nvalue = [2, 1]"] ;
1064 -> 1160 ;
1161 [label="gini = 0.0\nsamples = 2\nvalue = [2, 0]"] ;
1160 -> 1161 ;
1162 [label="gini = 0.0\nsamples = 1\nvalue = [0, 1]"] ;
1160 -> 1162 ;
1163 [label="X[29] <= 0.475\ngini = 0.444\nsamples = 3\nvalue = [2, 1]"] ;
1063 -> 1163 ;
1164 [label="gini = 0.0\nsamples = 1\nvalue = [0, 1]"] ;
1163 -> 1164 ;
1165 [label="gini = 0.0\nsamples = 2\nvalue = [2, 0]"] ;
1163 -> 1165 ;
1166 [label="X[127] <= 0.589\ngini = 0.298\nsamples = 11\nvalue = [9, 2]"] ;
1062 -> 1166 ;
1167 [label="gini = 0.0\nsamples = 9\nvalue = [9, 0]"] ;
1166 -> 1167 ;
1168 [label="gini = 0.0\nsamples = 2\nvalue = [0, 2]"] ;
1166 -> 1168 ;
1169 [label="X[144] <= 0.567\ngini = 0.5\nsamples = 2\nvalue = [1, 1]"] ;
1061 -> 1169 ;
1170 [label="gini = 0.0\nsamples = 1\nvalue = [1, 0]"] ;
1169 -> 1170 ;
1171 [label="gini = 0.0\nsamples = 1\nvalue = [0, 1]"] ;
1169 -> 1171 ;
1172 [label="X[133] <= 0.317\ngini = 0.128\nsamples = 102\nvalue = [95, 7]"] ;
1060 -> 1172 ;
1173 [label="X[24] <= 0.408\ngini = 0.49\nsamples = 7\nvalue = [3, 4]"] ;
1172 -> 1173 ;
1174 [label="gini = 0.0\nsamples = 3\nvalue = [3, 0]"] ;
1173 -> 1174 ;
1175 [label="gini = 0.0\nsamples = 4\nvalue = [0, 4]"] ;
1173 -> 1175 ;
1176 [label="X[62] <= 0.8\ngini = 0.061\nsamples = 95\nvalue = [92, 3]"] ;
1172 -> 1176 ;
1177 [label="X[89] <= 0.808\ngini = 0.022\nsamples = 92\nvalue = [91, 1]"] ;
1176 -> 1177 ;
1178 [label="gini = 0.0\nsamples = 91\nvalue = [91, 0]"] ;
1177 -> 1178 ;
1179 [label="gini = 0.0\nsamples = 1\nvalue = [0, 1]"] ;
1177 -> 1179 ;
1180 [label="X[161] <= 0.543\ngini = 0.444\nsamples = 3\nvalue = [1, 2]"] ;
1176 -> 1180 ;
1181 [label="gini = 0.0\nsamples = 2\nvalue = [0, 2]"] ;
1180 -> 1181 ;
1182 [label="gini = 0.0\nsamples = 1\nvalue = [1, 0]"] ;
1180 -> 1182 ;
1183 [label="X[126] <= 0.604\ngini = 0.32\nsamples = 10\nvalue = [8, 2]"] ;
1059 -> 1183 ;
1184 [label="gini = 0.0\nsamples = 8\nvalue = [8, 0]"] ;
1183 -> 1184 ;
1185 [label="gini = 0.0\nsamples = 2\nvalue = [0, 2]"] ;
1183 -> 1185 ;
1186 [label="X[45] <= 0.408\ngini = 0.5\nsamples = 2\nvalue = [1, 1]"] ;
1050 -> 1186 ;
1187 [label="gini = 0.0\nsamples = 1\nvalue = [0, 1]"] ;
1186 -> 1187 ;
1188 [label="gini = 0.0\nsamples = 1\nvalue = [1, 0]"] ;
1186 -> 1188 ;
1189 [label="X[80] <= 0.611\ngini = 0.5\nsamples = 2\nvalue = [1, 1]"] ;
1049 -> 1189 ;
1190 [label="gini = 0.0\nsamples = 1\nvalue = [1, 0]"] ;
1189 -> 1190 ;
1191 [label="gini = 0.0\nsamples = 1\nvalue = [0, 1]"] ;
1189 -> 1191 ;
1192 [label="X[34] <= 0.206\ngini = 0.26\nsamples = 26\nvalue = [22, 4]"] ;
1048 -> 1192 ;
1193 [label="gini = 0.0\nsamples = 3\nvalue = [0, 3]"] ;
1192 -> 1193 ;
1194 [label="X[139] <= 0.329\ngini = 0.083\nsamples = 23\nvalue = [22, 1]"] ;
1192 -> 1194 ;
1195 [label="gini = 0.0\nsamples = 1\nvalue = [0, 1]"] ;
1194 -> 1195 ;
1196 [label="gini = 0.0\nsamples = 22\nvalue = [22, 0]"] ;
1194 -> 1196 ;
1197 [label="X[15] <= 0.207\ngini = 0.111\nsamples = 270\nvalue = [254, 16]"] ;
1043 -> 1197 ;
1198 [label="gini = 0.0\nsamples = 2\nvalue = [0, 2]"] ;
1197 -> 1198 ;
1199 [label="X[9] <= 0.217\ngini = 0.099\nsamples = 268\nvalue = [254, 14]"] ;
1197 -> 1199 ;
1200 [label="X[2] <= 0.433\ngini = 0.408\nsamples = 21\nvalue = [15, 6]"] ;
1199 -> 1200 ;
1201 [label="X[8] <= 0.39\ngini = 0.278\nsamples = 6\nvalue = [1, 5]"] ;
1200 -> 1201 ;
1202 [label="gini = 0.0\nsamples = 1\nvalue = [1, 0]"] ;
1201 -> 1202 ;
1203 [label="gini = 0.0\nsamples = 5\nvalue = [0, 5]"] ;
1201 -> 1203 ;
1204 [label="X[196] <= 0.831\ngini = 0.124\nsamples = 15\nvalue = [14, 1]"] ;
1200 -> 1204 ;
1205 [label="gini = 0.0\nsamples = 14\nvalue = [14, 0]"] ;
1204 -> 1205 ;
1206 [label="gini = 0.0\nsamples = 1\nvalue = [0, 1]"] ;
1204 -> 1206 ;
1207 [label="X[30] <= 0.205\ngini = 0.063\nsamples = 247\nvalue = [239, 8]"] ;
1199 -> 1207 ;
1208 [label="X[170] <= 0.484\ngini = 0.444\nsamples = 3\nvalue = [1, 2]"] ;
1207 -> 1208 ;
1209 [label="gini = 0.0\nsamples = 2\nvalue = [0, 2]"] ;
1208 -> 1209 ;
1210 [label="gini = 0.0\nsamples = 1\nvalue = [1, 0]"] ;
1208 -> 1210 ;
1211 [label="X[91] <= 0.8\ngini = 0.048\nsamples = 244\nvalue = [238, 6]"] ;
1207 -> 1211 ;
1212 [label="X[127] <= 0.168\ngini = 0.025\nsamples = 237\nvalue = [234, 3]"] ;
1211 -> 1212 ;
